#############################################################################
## Copyright (c) 1996, Carnegie Mellon University, Cambridge University,
## Ronald Rosenfeld and Philip Clarkson
## Version 3, Copyright (c) 2006, Carnegie Mellon University 
## Contributors includes Wen Xu, Ananlada Chotimongkol, 
## David Huggins-Daines, Arthur Chan and Alan Black 
#############################################################################
=============================================================================
===============  This file was produced by the CMU-Cambridge  ===============
===============     Statistical Language Modeling Toolkit     ===============
=============================================================================
This is a 3-gram language model, based on a vocabulary of 736 words,
  which begins "-15%", "1", "10"...
This is a CLOSED-vocabulary model
  (OOVs eliminated from training data and are forbidden in test data)
Good-Turing discounting was applied.
1-gram frequency of frequency : 355 
2-gram frequency of frequency : 1791 392 144 91 48 36 21 
3-gram frequency of frequency : 3659 406 133 66 31 14 17 
1-gram discounting ratios : 1.00 
2-gram discounting ratios : 0.39 0.51 0.83 0.63 0.89 0.65 
3-gram discounting ratios : 0.20 0.48 0.65 0.58 0.53 
This file is in the ARPA-standard format introduced by Doug Paul.

p(wd3|wd1,wd2)= if(trigram exists)           p_3(wd1,wd2,wd3)
                else if(bigram w1,w2 exists) bo_wt_2(w1,w2)*p(wd3|wd2)
                else                         p(wd3|w2)

p(wd2|wd1)= if(bigram exists) p_2(wd1,wd2)
            else              bo_wt_1(wd1)*p_1(wd2)

All probs and back-off weights (bo_wt) are given in log10 form.

Data formats:

Beginning of data mark: \data\
ngram 1=nr            # number of 1-grams
ngram 2=nr            # number of 2-grams
ngram 3=nr            # number of 3-grams

\1-grams:
p_1     wd_1 bo_wt_1
\2-grams:
p_2     wd_1 wd_2 bo_wt_2
\3-grams:
p_3     wd_1 wd_2 wd_3 

end of data mark: \end\

\data\
ngram 1=736
ngram 2=2636
ngram 3=4352

\1-grams:
-3.7611 -15%	-0.2018
-3.1578 1	-0.2091
-2.9817 10	-0.2364
-3.2828 10%	-0.1952
-3.7611 100	-0.2124
-3.7611 123	-0.2018
-3.7611 15	-0.2120
-3.7611 15%	-0.2118
-3.2828 2	-0.2123
-3.4589 20	-0.2119
-3.4589 20%	-0.1859
-3.7611 25%	-0.1925
-3.1578 3	-0.2557
-3.4589 30	-0.2123
-3.7611 30%	-0.2017
-3.4589 4	-0.2124
-3.1578 5	-0.2095
-3.4589 5%	-0.1913
-3.7611 5%?	-0.2113
-3.2828 50	-0.2745
-3.7611 50%	-0.2118
-3.7611 A	-0.2104
-3.2828 ABC	-0.2002
-3.7611 Ana	-0.2109
-3.7611 Egito	-0.2013
-3.7611 Empresa	-0.2128
-3.7611 Final	-0.2104
-3.7611 João	-0.2018
-3.7611 K10	-0.2104
-3.7611 L1	-0.2089
-3.7611 L123	-0.2027
-3.7611 Lua?	-0.2117
-3.7611 MON-24	-0.2117
-3.2828 Maria	-0.2016
-3.7611 Penta	-0.2077
-3.7611 Silva	-0.2018
-3.7611 Silva?	-0.2084
-3.7611 Terra	-0.2128
-2.9817 Teste	-0.1933
-3.4589 X	-0.3043
-3.7611 X?	-0.2082
-3.2828 XPTO	-0.2095
-3.7611 XYZ	-0.2027
-3.4589 Y	-0.2013
-3.7611 Z	-0.2018
-1.7731 a	-0.3800
-3.7611 abc	-0.2027
-3.7611 aborte	-0.2055
-2.6807 abrir	-0.3625
-3.7611 abro	-0.1925
-3.1578 acabando	-0.2500
-3.7611 acabando?	-0.2029
-2.9817 acertar	-0.7376
-3.2828 acessar	-0.1839
-2.9148 acesso	-0.2228
-3.7611 adiciona	-0.1915
-1.8461 adicionar	-0.5981
-3.7611 adicione	-0.1915
-2.8057 adiciono	-1.1389
-3.7611 adição	-0.1823
-3.7611 admin	-0.2126
-3.7611 administração	-0.2018
-3.7611 afirmativo	-0.2127
-3.2828 agora	-0.2121
-3.7611 agora?	-0.2097
-3.7611 agrafador	-0.2082
-3.4589 agrupamento	-0.1704
-3.2828 agrupar	-0.2694
-3.7611 ainda	-0.2126
-2.3797 ajuda	-1.0978
-2.8057 ajudar	-0.9926
-3.4589 ajudar?	-0.2124
-2.9817 ajude	-0.3771
-2.4377 ajustar	-0.5657
-2.9817 ajuste	-0.6840
-3.7611 ajusto	-0.1925
-3.7611 alerta	-0.1823
-3.7611 alertas	-0.1823
-3.2828 algo	-0.1970
-3.7611 algo?	-0.2018
-3.1578 algum	-0.2496
-3.4589 alguma	-0.2127
-2.3449 alterar	-0.3902
-3.7611 alterações	-0.1823
-3.7611 altero	-0.1915
-3.1578 analisar	-0.1840
-3.7611 analise	-0.1925
-3.7611 anos	-0.2117
-3.7611 anterior	-0.2076
-3.7611 anterior?	-0.2124
-3.4589 análise	-0.1984
-2.4811 ao	-0.3376
-3.7611 aplicação	-0.2109
-3.7611 aprende	-0.2110
-3.2828 aprender	-0.7584
-3.7611 aprendeu	-0.2124
-3.7611 aprendeu?	-0.2018
-3.7611 aprendidos	-0.2110
-3.4589 arquivo	-0.1799
-3.7611 artificial?	-0.2076
-2.9148 artigo	-0.3417
-2.0971 as	-0.6884
-3.0609 assistente	-0.2481
-3.4589 atenção	-0.2082
-3.7611 atenção?	-0.2126
-3.4589 atual	-0.2005
-2.7185 atualizar	-0.3282
-3.7611 até	-0.2055
-3.7611 auditoria	-0.2120
-2.7599 aumentar	-0.2989
-3.4589 aumento	-0.2800
-3.7611 azuis	-0.2027
-3.7611 ação	-0.2089
-3.7611 ações	-0.2104
-3.7611 aí	-0.2123
-3.7611 aí,	-0.2123
-3.7611 aí?	-0.2124
-2.9817 baixo	-0.1859
-3.4589 baixo?	-0.2019
-3.7611 bala	-0.2128
-3.4589 base	-0.2800
-3.7611 baseadas	-0.2128
-3.7611 beleza	-0.2128
-3.2828 bem	-0.1933
-3.7611 bem?	-0.2126
-3.7611 bens	-0.2122
-3.7611 best-seller?	-0.2029
-3.0609 boa	-0.2490
-3.7611 bolo?	-0.2076
-3.1578 bom	-0.2585
-3.4589 bom?	-0.2010
-3.1578 borracha	-0.1979
-2.9817 borrachas	-0.2176
-3.7611 brasil?	-0.2076
-3.4589 breve?	-0.3006
-3.7611 buscar	-0.2094
-3.7611 cadastrais	-0.2017
-2.3620 cadastrar	-0.6147
-2.9148 cadastro	-0.2910
-3.7611 cadeiras	-0.2089
-3.7611 caderno	-0.2027
-3.4589 cadernos	-0.1984
-3.7611 caixa	-0.2027
-3.4589 caminho	-0.3004
-3.4589 campeão	-0.2800
-3.4589 cancelar	-0.2026
-3.0609 caneta	-0.1935
-3.2828 caneta?	-0.7613
-3.0609 canetas	-0.2243
-3.7611 cantar	-0.2077
-3.7611 capital	-0.2122
-3.7611 casa?	-0.2076
-2.4811 categoria	-0.2861
-3.7611 categoria?	-0.2066
-3.7611 categorias	-0.2123
-3.7611 categorias?	-0.2089
-3.4589 catálogo	-0.2100
-3.7611 catálogo?	-0.2029
-3.4589 cento	-0.1808
-3.7611 cento?	-0.2121
-3.7611 certeza	-0.2124
-3.4589 certo	-0.2124
-3.7611 certo?	-0.2126
-3.4589 chegada	-0.2800
-3.7611 chegando?	-0.2018
-3.7611 china?	-0.2029
-3.7611 clara	-0.2126
-2.9148 claro	-0.2152
-3.7611 claro?	-0.2120
-3.2828 classificação	-0.1670
-1.7599 cliente	-0.3496
-2.8057 cliente?	-0.3187
-2.3449 clientes	-0.2063
-3.2828 clientes?	-0.2005
-3.7611 clips?	-0.2089
-2.9148 colaborador	-0.1609
-3.1578 colocar	-0.2150
-2.2975 com	-0.2875
-3.7611 combinado	-0.2123
-3.4589 comercial	-0.2990
-3.1578 começar	-0.5375
-3.7611 começo	-0.2077
-1.5809 como	-0.6133
-3.7611 comparadas	-0.2127
-2.9817 comparar	-0.3983
-2.9817 comparação	-0.6818
-3.2828 compare	-0.7623
-2.4811 compra	-0.2011
-3.0609 comprador	-0.1843
-3.7611 comprador?	-0.2018
-3.4589 compradores	-0.2089
-3.7611 compradores?	-0.2018
-3.7611 comprados?	-0.2018
-3.7611 compram?	-0.2029
-3.4589 comprar	-0.2099
-3.7611 comprar?	-0.2029
-2.5046 compras	-1.1310
-3.4589 comprou	-0.1991
-3.7611 comprou?	-0.2029
-3.4589 concordo	-0.2123
-3.7611 confirmo	-0.2066
-3.7611 conhece?	-0.2110
-2.7185 consultar	-0.2112
-3.0609 consulto	-0.2585
-3.2828 conta	-0.1633
-3.2828 contagem	-0.2330
-3.7611 contar	-0.2077
-3.7611 contas	-0.2055
-3.0609 contato	-0.3348
-3.7611 continuar	-0.2128
-3.7611 continue	-0.2126
-3.4589 cor	-0.2016
-3.7611 correto	-0.2128
-3.1578 correção	-0.1691
-2.8568 corrigir	-0.4987
-3.7611 corrijo	-0.2055
-3.7611 costuma	-0.2128
-3.7611 cotação	-0.2017
-3.7611 credenciais	-0.1823
-3.7611 cria	-0.1915
-1.9274 criar	-0.6922
-3.7611 criação	-0.1823
-2.9817 crio	-0.6880
-3.7611 criou?	-0.2076
-2.5558 crédito	-0.5410
-3.2828 crédito?	-0.2585
-3.7611 crítico	-0.1823
-3.2828 csv	-0.2637
-3.7611 curta	-0.2029
-3.7611 curta?	-0.2018
-2.8057 da	-0.2306
-2.5294 dados	-1.0940
-3.4589 dados?	-0.1991
-2.5838 dar	-0.5415
-3.7611 dark	-0.2126
-3.7611 dark?	-0.2018
-3.0609 das	-0.2433
-3.7611 dashboard	-0.2126
-3.1578 data	-0.3999
-1.1677 de	-0.4372
-3.1578 definir	-0.1561
-3.1578 deixa	-0.2585
-3.7611 deixar	-0.2076
-3.7611 descobriu	-0.1925
-3.0609 desempenho	-0.4824
-3.4589 deste	-0.2126
-2.7185 detalhes	-0.9467
-3.7611 devedor	-0.2017
-3.7611 devedores	-0.2124
-3.7611 dever	-0.1823
-3.7611 devo	-0.2113
-3.4589 dia	-0.2014
-3.4589 dia,	-0.2009
-3.7611 dias?	-0.2097
-3.7611 dica	-0.2027
-3.7611 diferença	-0.1823
-2.5838 diga	-0.3821
-3.2828 diminuir	-0.1889
-3.4589 disponibilidade	-0.1703
-3.7611 disponíveis	-0.2027
-3.4589 disponível	-0.1913
-3.7611 distância	-0.2122
-3.4589 diurno	-0.2120
-3.1578 dizer	-0.2310
-1.5955 do	-0.8615
-3.4589 documento	-0.1799
-3.7611 dois	-0.2128
-3.2828 dos	-0.2072
-2.8568 dê	-0.4705
-3.7611 dólar?	-0.2121
-2.9817 e	-0.1738
-2.7599 editar	-0.2443
-3.7611 edito	-0.1915
-3.7611 efetuar	-0.2077
-2.1264 em	-0.3459
-3.4589 encomenda	-0.2072
-3.4589 encomendar	-0.2085
-3.4589 endereço	-0.1703
-3.4589 ensine	-0.3032
-2.5838 entrada	-0.6793
-3.7611 entrada?	-0.2117
-3.7611 entradas	-0.2124
-3.7611 entre	-0.2127
-3.7611 equipa	-0.2077
-3.4589 escura	-0.2107
-2.9148 escuro	-0.2758
-3.4589 esquece	-0.2117
-3.4589 esta	-0.3104
-3.2828 estado	-0.2330
-3.4589 estamos	-0.1821
-3.7611 estamos?	-0.2125
-3.7611 estao	-0.2027
-3.1578 este	-0.4300
-1.8254 estoque	-0.5346
-2.6807 estoque?	-0.3177
-3.7611 estrela	-0.2076
-2.9148 está	-0.1879
-3.7611 está?	-0.2126
-2.6460 estão	-0.2337
-2.4589 eu	-0.4265
-3.7611 evolução	-0.2125
-3.7611 existem	-0.2027
-3.4589 existente?	-0.1970
-3.7611 expiram	-0.2096
-3.7611 expirando	-0.2097
-3.2828 expirar	-0.1987
-3.7611 expirar?	-0.2029
-3.4589 explique	-0.2990
-3.0609 exportar	-0.2173
-3.4589 extrato	-0.2800
-3.7611 faco	-0.2027
-2.7599 fale	-0.3821
-3.1578 falta	-0.1922
-3.2828 família	-0.7352
-3.7611 faturamento	-0.2124
-3.7611 faturamento?	-0.2122
-2.8568 favor	-0.2324
-3.7611 favorita?	-0.2117
-3.7611 favorito?	0.0000
-3.7611 faz	-0.2055
-2.4377 fazer	-0.5237
-3.7611 faça	-0.2124
-2.7185 faço	-1.2222
-3.7611 fechado	-0.2128
-3.7611 fechou	-0.2128
-3.7611 filme	-0.2076
-3.7611 fim?	-0.2084
-2.9817 financeiro	-0.2362
-3.7611 financeiro?	-0.2122
-3.4589 finanças	-0.2010
-3.7611 finanças?	-0.2018
-3.7611 fiéis	-0.2120
-3.7611 foi	-0.2055
-3.1578 foram	-0.4270
-3.4589 forma	-0.2800
-3.7611 formato	-0.2126
-2.2284 fornecedor	-0.2802
-3.7611 fornecedor,	-0.2118
-3.0609 fornecedor?	-0.2192
-3.7611 fornecedores	-0.2126
-3.7611 frança	-0.2117
-3.7611 frase	-0.2027
-3.7611 frente	-0.2127
-3.7611 frequentes?	-0.2084
-3.4589 funciona	-0.3004
-3.7611 funciona?	-0.2066
-3.0609 funcionário	-0.1835
-3.7611 futebol?	-0.2117
-3.7611 ganhou	-0.1925
-3.7611 geral?	-0.2029
-3.7611 geram	-0.2104
-2.8057 gerar	-0.2970
-3.4589 gero	-0.2892
-3.4589 gestão	-0.2800
-3.7611 gosta	-0.1823
-3.7611 gostaria	-0.1823
-3.4589 grupo	-0.1699
-3.1578 guia	-0.4203
-3.7611 guiar	-0.2124
-3.7611 guie	-0.2124
-2.9148 habito	-0.2185
-3.0609 habitos	-0.2440
-3.0609 historico	-0.3348
-3.7611 história	-0.2017
-2.2158 histórico	-1.0588
-3.0609 hoje	-0.2040
-3.7611 hoje?	-0.2116
-3.7611 horas	-0.2128
-2.8057 hábito	-0.1818
-3.7611 hábito?	-0.2066
-2.6807 hábitos	-0.1916
-3.2828 hábitos?	-0.1939
-3.7611 importantes?	-0.2084
-3.7611 inativar	-0.1925
-2.6807 incluir	-0.5798
-3.4589 informar	-0.1859
-2.6138 informações	-0.7838
-3.2828 informe	-0.2546
-3.0609 iniciar	-0.1981
-3.7611 inicie	-0.2077
-2.8057 inserir	-0.4351
-3.7611 insight	-0.2116
-3.7611 insight?	-0.2097
-3.1578 insights	-0.2095
-3.7611 inteligência	-0.2128
-3.2828 interface	-0.2753
-3.4589 inventario	-0.1788
-2.4589 inventário	-0.2331
-3.4589 inventário?	-0.1985
-3.7611 início	-0.2018
-2.8568 ir	-1.1047
-2.9817 isso	-0.2122
-2.1164 item	-0.3121
-2.9817 item?	-0.2093
-2.4175 itens	-0.2839
-3.7611 itens?	-0.2018
-3.0609 joao	-0.1966
-3.7611 joao?	-0.2084
-3.7611 jogo	-0.1823
-3.7611 la	-0.2128
-3.1578 lançar	-0.2253
-3.7611 lanço	-0.2077
-2.9817 lapis	-0.1750
-3.7611 lapis?	-0.2125
-3.7611 layout	-0.2027
-3.7611 lembrar	-0.1823
-3.4589 lembre	-0.2800
-3.4589 lembrete	-0.2012
-3.1578 leve	-0.4203
-3.4589 light	-0.2005
-2.6807 lista	-0.7652
-2.6460 listar	-0.8408
-3.2828 liste	-0.1821
-2.9148 log	-0.8725
-3.1578 login	-0.2351
-1.9404 lote	-0.4633
-2.5838 lote?	-0.3798
-2.0878 lotes	-0.5486
-3.7611 lá	-0.2125
-3.7611 líder	-0.1823
-3.4589 maior	-0.2127
-3.7611 maiores	-0.2128
-2.2414 mais	-0.3378
-3.4589 mais?	-0.1992
-3.7611 mandar	-0.2128
-3.2828 manual	-0.1861
-3.4589 maria	-0.2093
-3.7611 maria?	-0.2029
-3.7611 material	-0.2101
-1.6426 me	-0.9348
-3.2828 melhor	-0.2748
-2.9148 melhores	-0.4114
-3.4589 membro	-0.2016
-3.7611 membro?	-0.2066
-3.7611 mensais	-0.2076
-3.7611 mercadoria	-0.2013
-3.7611 mercadoria?	-0.2013
-3.7611 mercadorias	-0.2013
-3.7611 mes	-0.2121
-3.7611 mesas	-0.2027
-3.7611 mesmo	-0.2066
-3.7611 metas	-0.2123
-2.9817 meu	-0.4467
-2.3620 meus	-0.5640
-3.7611 mim	-0.2123
-3.0609 mim?	-0.2114
-3.4589 minhas	-0.2127
-2.6460 modificar	-0.3329
-2.9148 modo	-0.2646
-3.7611 monitor	-0.2027
-2.7599 mostrar	-0.2410
-2.1801 mostre	-0.9665
-2.9817 movimentações	-0.3442
-2.9148 movimentos	-0.2001
-2.7185 mudar	-0.7380
-3.4589 mude	-0.3004
-3.7611 médio?	-0.2122
-3.2828 mês	-0.2105
-2.9817 mês?	-0.2414
-3.7611 mínimo	-0.2013
-3.7611 módulo	-0.1823
-3.4589 música?	-0.3053
-3.7611 n	-0.2128
-2.9817 na	-0.2418
-3.7611 nao	-0.2127
-3.2828 navegar	-0.7556
-3.7611 necessário	-0.2066
-3.7611 negativo	-0.2125
-3.7611 negócio	-0.2055
-3.7611 negócios	-0.2089
-2.6138 no	-0.6659
-3.7611 noite	-0.2124
-3.7611 noite,	-0.2125
-3.7611 nome?	-0.2117
-3.7611 nos	-0.2110
-3.7611 nosso	-0.2128
-3.4589 noturno	-0.2104
-3.7611 noturno?	-0.2127
-2.2036 nova	-0.4740
-3.7611 nova?	-0.2066
-1.7731 novo	-0.4152
-3.1578 novo?	-0.5377
-3.7611 novos	-0.2086
-3.7611 num	-0.2079
-3.7611 numa	-0.2101
-2.8057 não	-0.2183
-3.0609 não,	-0.2478
-3.4589 nível	-0.1822
-3.1578 número	-0.3999
-3.7611 números	-0.1823
-1.3383 o	-0.7168
-3.4589 obrigado	-0.2121
-3.7611 oi	-0.2126
-3.1578 oi,	-0.2009
-3.7611 ok	-0.2128
-3.7611 ok,	-0.2066
-3.7611 ola	-0.2128
-3.4589 olá	-0.2120
-3.1578 olá,	-0.1993
-3.4589 onde	-0.2014
-3.1578 ontem	-0.1841
-3.7611 ontem?	-0.2029
-3.7611 operação	-0.2125
-2.9148 ordem	-0.8725
-3.7611 ordem?	-0.2013
-3.4589 organizar	-0.3087
-1.8408 os	-1.0327
-3.7611 padrões?	-0.2029
-2.9148 painel	-0.3722
-3.4589 panorama	-0.1822
-1.6360 para	-0.3780
-3.7611 para,	-0.2118
-3.7611 parar	-0.2127
-2.9148 parceiro	-0.2262
-3.7611 pare	-0.2125
-3.7611 passada?	-0.2124
-3.7611 passado	-0.2087
-3.1578 passo	-0.2929
-3.1578 pdf	-0.5272
-3.7611 pdf?	-0.2082
-2.6460 pedido	-0.3519
-3.7611 pedido?	-0.2082
-3.4589 pedidos	-0.1703
-3.2828 pedir	-0.2728
-3.4589 percentual	-0.1704
-3.7611 percentualmente	-0.2126
-2.9817 perfil	-0.3404
-3.0609 performance	-0.9322
-3.7611 periódico	-0.2055
-3.7611 personalizado?	-0.2066
-3.0609 perto	-0.9322
-3.7611 período?	-0.2066
-3.7611 períodos?	-0.2124
-3.4589 pessoa	-0.2101
-3.7611 peças	-0.2126
-3.7611 peço	-0.2126
-3.7611 pi?	-0.2013
-3.7611 piada?	-0.2108
-3.7611 plenamente	-0.2123
-1.8408 pode	-0.6035
-3.7611 pontos	-0.1823
-3.4589 popular	-0.2069
-3.7611 popular?	-0.2066
-3.7611 população	-0.2122
-2.6138 por	-0.6093
-3.7611 porcentagem	-0.2082
-3.7611 positivo	-0.2128
-3.0609 posso	-0.2461
-3.7611 pouca	-0.2128
-3.7611 poucas	-0.2120
-3.4589 pouco	-0.2059
-3.4589 pra	-0.2127
-3.4589 precisa	-0.2002
-3.0609 precisam	-0.3466
-1.9675 preciso	-0.4779
-3.7611 previsao	-0.2017
-2.8057 preço	-0.6758
-3.2828 principais	-0.7638
-3.7611 principais?	-0.2123
-3.7611 problemas	-0.2128
-3.4589 procedimento	-0.3004
-3.2828 processo	-0.2340
-3.2828 procurar	-0.7454
-1.6954 produto	-0.3458
-3.7611 produto,	-0.2118
-2.4811 produto?	-0.4066
-2.0117 produtos	-0.3900
-3.2828 produtos?	-0.2603
-3.7611 programar?	-0.2117
-3.7611 propósito?	-0.2117
-3.7611 prossiga	-0.2128
-3.7611 proxima	-0.2093
-3.4589 próxima	-0.2033
-3.7611 próximo	-0.2097
-3.4589 próximos	-0.2010
-2.1366 quais	-0.6170
-1.9148 qual	-1.5392
-3.1578 quantas	-0.5492
-2.5046 quantidade	-0.5862
-3.7611 quantidade?	-0.2018
-3.2828 quanto	-0.2230
-3.7611 quantos	-0.2128
-3.7611 quartas	-0.2128
-2.3127 que	-0.3290
-2.7599 quem	-0.4386
-1.5985 quero	-0.5627
-3.7611 quieto	-0.2122
-2.9148 ranking	-0.3828
-3.7611 reativar	-0.1915
-3.7611 receber	-0.2029
-3.2828 recebimento	-0.7352
-3.1578 receita	-0.1588
-3.7611 receita?	-0.2029
-3.7611 recomendação	-0.2027
-3.2828 recomendações	-0.2025
-3.7611 recomende	-0.1915
-3.1578 reduzir	-0.5294
-3.4589 registo	-0.1714
-3.4589 registrados	-0.1910
-2.0356 registrar	-0.8314
-2.9148 registro	-0.3387
-3.2828 relatorio	-0.7352
-3.7611 relatorios	-0.2029
-2.4811 relatório	-0.5793
-3.7611 relatório?	-0.2082
-3.7611 relatórios	-0.2128
-3.7611 relação	-0.2055
-3.7611 reposição	-0.2097
-3.7611 requisição	-0.2082
-3.7611 resumir	-0.2094
-2.8057 resumo	-0.4141
-3.7611 rotinas	-0.2013
-3.7611 s	-0.2127
-2.5294 saber	-0.5599
-3.7611 sai	-0.2127
-3.7611 saindo?	-0.2018
-2.8057 saldo	-0.3996
-3.7611 sao	-0.2066
-3.7611 saudações	-0.2013
-3.7611 saída	-0.2029
-3.7611 saída?	-0.2029
-3.7611 saídas	-0.1823
-3.2828 se	-0.2126
-3.7611 segunda-feira	-0.2018
-3.2828 sei	-0.7626
-3.7611 sem	-0.2128
-3.2828 semana	-0.2091
-3.7611 sentido	-0.2122
-3.7611 sentimentos?	-0.2121
-3.4589 ser	-0.2127
-3.7611 serviços	-0.2018
-3.4589 seu	-0.2127
-3.7611 sexta	-0.2089
-3.0609 seção	-0.3359
-3.7611 silva	-0.2126
-3.7611 sim	-0.2128
-3.7611 sim,	-0.2118
-2.6460 sistema	-0.1537
-3.1578 sistema?	-0.1763
-2.9817 sobre	-0.2432
-3.7611 solicitar	-0.2077
-3.2828 solicitação	-0.7352
-3.7611 sonha?	-0.2128
-2.9817 status	-0.2186
-3.0609 stock	-0.2151
-3.7611 sua	-0.2127
-3.7611 sucesso?	-0.2066
-3.7611 sugere?	-0.2029
-3.7611 sugestão	-0.2055
-3.2828 sugestões	-0.2643
-3.7611 sugira	-0.2077
-3.7611 sábado	-0.2018
-2.6138 são	-0.8675
-3.7611 são?	-0.2076
-3.7611 tarde	-0.2125
-3.4589 tarde,	-0.2078
-3.4589 te	-0.2126
-3.7611 teclados	-0.2027
-3.1578 tela	-0.3999
-3.4589 telefone	-0.2994
-2.5294 tem	-0.3659
-3.4589 tem?	-0.2012
-2.5558 tema	-0.2552
-3.2828 temos	-0.2330
-3.7611 tempo?	-0.2121
-3.7611 teste	-0.2128
-3.7611 ticket	-0.2128
-3.7611 time	-0.1823
-3.4589 tipo	-0.2800
-3.7611 toda	-0.2128
-3.7611 todas	-0.2094
-3.7611 todo	-0.1925
-3.4589 todos	-0.3043
-2.8057 top	-0.2828
-3.4589 total	-0.2800
-3.4589 trabalho	-0.2023
-3.7611 traduzir	-0.2077
-3.2828 transação	-0.2325
-3.7611 transações	-0.1823
-2.9148 tudo	-0.2622
-3.1578 tutorial	-0.4203
-3.7611 têm	-0.2126
-1.3190 um	-0.9463
-1.9274 uma	-0.5254
-3.7611 unidade	-0.1823
-2.7185 unidades	-0.2278
-3.7611 usar	-0.1925
-3.7611 uso	-0.2018
-2.6460 usuário	-0.2597
-3.7611 usuário?	-0.2077
-3.7611 usuários	-0.2029
-2.9148 utilizador	-0.2415
-3.7611 utilizador?	-0.2018
-3.4589 vai	-0.2119
-3.4589 vai?	-0.2126
-3.7611 valeu	-0.2126
-2.8057 validade	-0.1963
-3.7611 valiosos?	-0.2029
-3.1578 valor	-0.5162
-2.5046 vamos	-0.3258
-2.9817 vejo	-0.3162
-3.7611 vencem	-0.2096
-2.7599 vencer	-0.1806
-3.2828 vencer?	-0.1973
-3.7611 vencimento	-0.2128
-3.7611 vencimento?	-0.2084
-2.2547 venda	-0.4637
-3.7611 venda,	-0.2118
-3.2828 venda?	-0.1928
-2.0195 vendas	-0.3805
-2.8057 vendas?	-0.3125
-3.7611 vende	-0.2127
-3.7611 vende?	-0.2029
-2.9148 vendedor	-0.1936
-3.7611 vendedor?	-0.2018
-2.5558 vender	-0.2103
-3.7611 vendeu?	-0.2125
-3.0609 vendido	-0.2181
-3.2828 vendido?	-0.2601
-3.2828 vendidos	-0.2636
-3.7611 vendo	-0.1915
-1.9890 ver	-0.5844
-3.0609 verificar	-0.3492
-3.7611 verifique	-0.1925
-3.7611 vida?	-0.2117
-3.2828 visual	-0.2016
-3.7611 voce	-0.2128
-2.5838 você	-0.2519
-3.7611 vs	-0.2126
-3.7611 vá	-0.2096
-3.1578 vão	-0.3096
-3.4589 à	-0.2126
-3.4589 às	-0.1822
-3.4589 área	-0.2800
-3.0609 é	-0.2230
-3.7611 últimas	-0.2115

\2-grams:
-0.4118 -15% quero -0.0679
-1.0138 1 borracha -0.0546
-1.0138 1 item -0.0950
-1.0138 1 monitor 0.1140
-1.0138 1 unidade 0.1140
-1.1899 10 borrachas -0.0699
-1.1899 10 clips? 0.1140
-0.7688 10 por -0.0528
-1.1899 10 produtos -0.0959
-1.1899 10 unidades 0.0139
-0.8889 10% no 0.2021
-0.8889 10% qual 0.4038
-0.8889 10% quero -0.0977
-0.4118 100 borrachas -0.0699
-0.4118 123 quero -0.0914
-0.4118 15 unidades -0.0566
-0.4118 15% no 0.2021
-0.8889 2 canetas 0.0004
-0.8889 2 mesas 0.1140
-0.8889 2 teclados 0.1140
-0.7128 20 cadernos -0.0054
-0.7128 20 unidades -0.0566
-0.7128 20% o -0.0700
-0.7128 20% pode -0.0969
-0.4118 25% o -0.0484
-1.0138 3 borrachas -0.0178
-0.5927 3 clientes -0.0747
-1.0138 3 unidades 0.0139
-0.7128 30 borrachas -0.0178
-0.7128 30 dias? 0.1140
-0.4118 30% do -0.0958
-0.7128 4 cadeiras 0.1140
-0.7128 4 canetas 0.0004
-1.0138 5 clientes? -0.0388
-1.0138 5 itens -0.0912
-1.0138 5 lapis -0.0699
-1.0138 5 por -0.0660
-0.7128 5% do -0.0958
-0.7128 5% para -0.0976
-0.4118 5%? ajustar 0.1819
-0.4678 50 canetas -0.0258
-0.8889 50 corrigir 0.0627
-0.4118 50% no 0.2021
-0.4118 A venda -0.0852
-0.8889 ABC 3 -0.0546
-0.8889 ABC quero -0.0774
-0.8889 ABC vender -0.0246
-0.4118 Ana alterar 0.0373
-0.4118 Egito como -0.0978
-0.4118 Empresa A 0.1140
-0.4118 Final venda -0.0938
-0.4118 João quero -0.0913
-0.4118 K10 venda 0.0217
-0.4118 L1 registrar -0.0608
-0.4118 L123 para 0.0164
-0.4118 Lua? você -0.0192
-0.4118 MON-24 vender -0.0882
-0.8889 Maria Silva 0.1140
-0.8889 Maria Silva? 0.1140
-0.8889 Maria do -0.0451
-0.4118 Penta criar -0.0964
-0.4118 Silva quero -0.0913
-0.4118 Silva? ver 0.0592
-0.4118 Terra até 0.1140
-1.1899 Teste Final 0.1140
-1.1899 Teste me 0.0486
-1.1899 Teste nova -0.0674
-1.1899 Teste pode -0.0935
-1.1899 Teste tem? -0.0054
-1.1899 Teste vendeu? 0.1140
-0.2917 X pode -0.0915
-0.4118 X? preciso -0.0962
-0.8889 XPTO abrir -0.0602
-0.8889 XPTO tem -0.0293
-0.8889 XPTO vender -0.0246
-0.4118 XYZ para 0.0164
-0.7128 Y para 0.0164
-0.7128 Y vamos -0.0735
-0.4118 Z quero -0.0679
-2.3985 a Lua? 0.1140
-2.3985 a Maria -0.0388
-1.5861 a adicionar -0.0401
-2.3985 a administração 0.1140
-2.3985 a ajustar 0.1819
-2.3985 a alterar -0.0281
-2.3985 a anterior? 0.1140
-1.5913 a cadastrar -0.0169
-2.3985 a capital 0.1140
-1.9774 a chegada 0.0271
-2.3985 a cliente -0.0972
-1.9774 a comparação 0.3058
-1.5913 a contagem 0.0626
-2.3985 a cor -0.0054
-2.3985 a correção -0.0546
-2.3985 a cotação 0.1140
-1.3379 a criar -0.0280
-2.3985 a dar 0.0542
-1.9774 a data 0.1470
-2.3985 a diferença 0.1140
-1.9774 a disponibilidade 0.1140
-2.3985 a distância 0.1140
-2.3985 a entrada 0.3782
-2.3985 a evolução 0.1140
-1.9774 a fazer 0.1975
-1.9774 a forma 0.0271
-2.3985 a gestão 0.2117
-2.3985 a história 0.1140
-2.3985 a inserir 0.1978
-2.3985 a interface 0.0820
-2.3985 a lista 0.5032
-2.3985 a ontem -0.0546
-2.3985 a operação 0.1140
-1.9774 a passo -0.1554
-1.5913 a performance 0.5023
-2.3985 a população 0.1140
-2.3985 a previsao 0.1140
-2.3985 a programar? 0.1140
-0.7563 a quantidade 0.0988
-2.3985 a receber 0.1140
-1.9774 a receita -0.0054
-2.3985 a semana -0.0388
-2.3985 a seção 0.2048
-2.3985 a sua 0.1140
-1.5913 a tela -0.0301
-1.9774 a um -0.2559
-2.3985 a uma -0.0923
-1.5913 a vencer -0.0129
-1.3379 a venda -0.2742
-2.3985 a vender -0.0882
-2.3985 a área 0.2117
-0.4118 abc para -0.0976
-0.4118 aborte a -0.0972
-1.4909 abrir a -0.0972
-1.4909 abrir me -0.0905
-0.4303 abrir o -0.1508
-1.4909 abrir os -0.0969
-1.4909 abrir pedido 0.0566
-1.4909 abrir uma 0.0347
-1.0698 abrir venda 0.0672
-0.4118 abro o -0.0915
-0.5927 acabando quais -0.2411
-1.0138 acabando tem -0.0293
-1.0138 acabando ver -0.0913
-0.4118 acabando? me -0.0465
-0.3827 acertar a -0.1155
-0.3827 acertar o -0.0285
-0.8889 acessar a -0.0972
-0.8889 acessar mostrar -0.0817
-0.8889 acessar o -0.0915
-1.2569 acesso a -0.0972
-0.8358 acesso ao -0.2218
-0.8358 acesso como -0.0534
-1.2569 acesso para -0.0841
-1.2569 acesso quero -0.0679
-0.4118 adiciona um -0.0471
-1.9045 adicionar ao -0.0103
-2.3256 adicionar categoria -0.0372
-1.9045 adicionar cliente -0.0703
-2.3256 adicionar conta -0.0388
-2.3256 adicionar dados 0.1316
-1.9045 adicionar estoque 0.0186
-2.3256 adicionar família 0.6669
-1.9045 adicionar fornecedor -0.0601
-2.3256 adicionar habito -0.0742
-1.9045 adicionar item -0.2580
-2.3256 adicionar itens -0.0912
-1.0687 adicionar lote -0.0737
-2.3256 adicionar lote? -0.0202
-1.5132 adicionar mais -0.0601
-2.3256 adicionar novo -0.0415
-2.3256 adicionar o -0.0972
-2.3256 adicionar os -0.0431
-2.3256 adicionar produto -0.0950
-2.3256 adicionar produtos -0.0909
-0.2704 adicionar um -0.0504
-1.5184 adicionar uma -0.0440
-2.3256 adicionar unidades -0.0833
-2.3256 adicionar usuário -0.0633
-0.4118 adicione um -0.0918
-1.3660 adiciono estoque -0.0758
-0.0512 adiciono um 0.0611
-0.4118 adição de -0.0318
-0.4118 admin quanto -0.0388
-0.4118 administração quero -0.0274
-0.4118 afirmativo concordo -0.0054
-0.8889 agora 2 -0.0388
-0.8889 agora 20 -0.0054
-0.8889 agora iniciar -0.0639
-0.4118 agora? quais -0.0071
-0.4118 agrafador preciso -0.0917
-0.7128 agrupamento de -0.0761
-0.7128 agrupamento quero -0.0977
-0.8889 agrupar meus -0.0921
-0.4678 agrupar produtos -0.0928
-0.4118 ainda temos 0.0820
-1.7920 ajuda a -0.0943
-1.7920 ajuda olá, -0.0546
-0.0580 ajuda para -0.2306
-1.7920 ajuda sim 0.1140
-0.0458 ajudar a -0.1340
-0.7128 ajudar? olá -0.0054
-0.7128 ajudar? olá, -0.0546
-0.3775 ajude a -0.1472
-0.7688 ajude com -0.0424
-1.7340 ajustar 5% -0.0054
-0.9268 ajustar a -0.1236
-1.3129 ajustar as -0.1890
-1.7340 ajustar dados 0.1316
-1.7340 ajustar estoque -0.0758
-1.7340 ajustar meu -0.0178
-0.3222 ajustar o -0.5474
-1.3129 ajustar um -0.0216
-0.1293 ajuste de -0.1317
-1.1899 ajuste percentual -0.0054
-0.4118 ajusto o -0.0484
-0.4118 alerta de -0.0945
-0.4118 alertas de -0.0773
-0.8889 algo criar 0.2021
-0.8889 algo iniciar -0.0639
-0.8889 algo para -0.0841
-0.4118 algo? quero -0.0914
-1.0138 algum crédito? 0.0820
-0.5927 algum produto -0.0936
-1.0138 algum valor 0.3229
-0.7128 alguma dica 0.1140
-0.7128 alguma recomendação 0.1140
-1.0143 alterar a -0.0901
-1.8267 alterar as -0.0043
-1.8267 alterar dados 0.1316
-1.8267 alterar estoque -0.0969
-1.8267 alterar lote -0.0822
-0.5699 alterar o -0.1436
-1.4056 alterar os 0.0073
-1.4056 alterar para -0.1683
-1.8267 alterar tema -0.0882
-0.8226 alterar um -0.1816
-0.4118 alterações de -0.0773
-0.4118 altero um -0.0489
-1.0138 analisar as 0.1015
-1.0138 analisar o -0.0972
-1.0138 analisar performance 0.8639
-1.0138 analisar vendas -0.0398
-0.4118 analise o -0.0972
-0.4118 anos você -0.0875
-0.4118 anterior qual 0.0386
-0.4118 anterior? comparação 0.4904
-0.7128 análise do -0.0913
-0.7128 análise quais -0.0564
-1.6905 ao catálogo -0.0054
-1.6905 ao catálogo? 0.1140
-1.2694 ao estoque -0.0487
-1.2694 ao estoque? 0.1353
-1.6905 ao fornecedor -0.0856
-0.8833 ao inventário -0.1078
-1.2694 ao lote 0.0396
-1.2694 ao meu -0.0512
-0.8781 ao sistema -0.0190
-1.6905 ao sistema? -0.0546
-0.4118 aplicação alterar -0.0815
-0.4118 aprende meus -0.0534
-0.0817 aprender a -0.0646
-0.4118 aprendeu sobre -0.0699
-0.4118 aprendeu? quero -0.0274
-0.4118 aprendidos meus 0.0949
-0.7128 arquivo com -0.0595
-0.7128 arquivo de -0.0642
-0.4118 artificial? qual 0.0386
-0.4497 artigo como -0.1925
-1.2569 artigo incluir 0.2813
-1.2569 artigo lotes 0.0169
-1.2569 artigo para 0.0164
-1.2569 artigo ver -0.0001
-1.0704 as compras 0.6360
-2.0745 as de -0.0978
-2.0745 as finanças -0.0054
-2.0745 as finanças? 0.1140
-0.7085 as informações -0.1113
-1.6534 as minhas 0.1140
-1.2673 as movimentações 0.1738
-1.6534 as recomendações 0.0309
-1.6534 as sugestões 0.1766
-0.4323 as vendas -0.1320
-2.0745 as vendas? 0.0415
-2.0745 as últimas 0.1140
-0.6896 assistente boa 0.0449
-1.1107 assistente bom 0.0292
-1.1107 assistente oi, -0.0546
-1.1107 assistente olá, -0.0546
-0.7128 atenção lotes -0.0750
-0.7128 atenção no 0.2021
-0.4118 atenção? sugestões 0.0820
-0.7128 atual com -0.0595
-0.7128 atual para -0.0955
-1.4532 atualizar as -0.0043
-1.4532 atualizar informações 0.2691
-0.6408 atualizar o -0.1292
-1.4532 atualizar os -0.0431
-1.4532 atualizar produto -0.0719
-0.6460 atualizar um 0.0454
-0.4118 até a -0.0972
-0.4118 auditoria abrir -0.0846
-1.4118 aumentar 30% 0.1140
-0.9907 aumentar a -0.1998
-0.9907 aumentar em -0.0777
-1.4118 aumentar meu -0.0178
-0.5994 aumentar o -0.2832
-0.2917 aumento de -0.0980
-0.4118 azuis para 0.0164
-0.4118 ação registrar 0.2274
-0.4118 ações mais -0.0938
-0.4118 aí tudo -0.0742
-0.4118 aí, tudo -0.0304
-0.4118 aí? e -0.0699
-1.1899 baixo estoque -0.0969
-1.1899 baixo estoque? -0.0846
-1.1899 baixo inventário? -0.0054
-1.1899 baixo quais -0.0564
-1.1899 baixo quero -0.0515
-1.1899 baixo ver -0.0913
-0.7128 baixo? lista 0.5032
-0.7128 baixo? me 0.0486
-0.4118 bala fechou 0.1140
-0.2917 base de -0.2824
-0.4118 baseadas nos 0.1140
-0.4118 beleza fechado 0.1140
-0.8889 bem ao -0.0749
-0.8889 bem como -0.0959
-0.8889 bem pode -0.0969
-0.4118 bem? olá, -0.0546
-0.4118 bens inserir -0.0798
-0.4118 best-seller? me 0.0486
-1.1107 boa noite 0.1140
-1.1107 boa noite, 0.1140
-1.1107 boa tarde 0.1140
-0.6896 boa tarde, 0.1140
-0.4118 bolo? qual 0.4038
-1.0138 bom dia -0.0054
-0.5927 bom dia, 0.1140
-1.0138 bom trabalho -0.0054
-0.7128 bom? como -0.0917
-0.7128 bom? oi, -0.0546
-1.0138 borracha atualizar 0.0139
-1.0138 borracha lotes 0.0169
-1.0138 borracha para -0.0906
-1.0138 borracha quantas 0.3229
-1.1899 borrachas diminuir -0.0388
-0.7688 borrachas do -0.2298
-1.1899 borrachas em -0.0884
-1.1899 borrachas encomendar -0.0054
-1.1899 borrachas para 0.0164
-0.4118 brasil? qual 0.0386
-0.2917 breve? me 0.1241
-0.4118 buscar as -0.0043
-0.4118 cadastrais do 0.0484
-1.8097 cadastrar artigo -0.0742
-1.8097 cadastrar comprador -0.0639
-1.8097 cadastrar fornecedor -0.0379
-1.8097 cadastrar funcionário -0.0639
-1.8097 cadastrar novo -0.0415
-1.3886 cadastrar o -0.0483
-1.8097 cadastrar parceiro -0.0304
-0.1938 cadastrar um -0.0748
-1.8097 cadastrar uma 0.0347
-0.4445 cadastro de -0.0917
-0.8358 cadastro do -0.1362
-1.2569 cadastro um -0.0489
-0.4118 cadeiras registrar -0.0608
-0.4118 caderno para -0.0976
-0.7128 cadernos do -0.0958
-0.7128 cadernos em -0.0950
-0.4118 caixa para -0.0976
-0.2917 caminho para 0.0121
-0.2917 campeão de -0.2489
-0.7128 cancelar esquece -0.0054
-0.7128 cancelar para -0.0976
-1.1107 caneta ajustar -0.0908
-1.1107 caneta entrada 0.3782
-1.1107 caneta pode -0.0969
-1.1107 caneta preciso -0.0917
-1.1107 caneta qual 0.0386
-0.0817 caneta? ver -0.0277
-1.1107 canetas azuis 0.1140
-0.6896 canetas do -0.2298
-1.1107 canetas em -0.0884
-1.1107 canetas para 0.0164
-0.4118 cantar uma -0.0964
-0.4118 capital da -0.0798
-0.4118 casa? qual 0.4038
-0.8833 categoria adicionar 0.2693
-1.6905 categoria cadastrar -0.0921
-0.8781 categoria como -0.1218
-1.6905 categoria criar -0.0298
-1.2694 categoria de -0.0708
-0.8781 categoria nova -0.1905
-1.6905 categoria por 0.2691
-1.6905 categoria preciso 0.0703
-1.6905 categoria quero -0.0870
-1.6905 categoria vamos 0.0246
-0.4118 categoria? adicionar 0.2351
-0.4118 categorias ir 0.8042
-0.4118 categorias? registrar -0.0957
-0.7128 catálogo alterar -0.0924
-0.7128 catálogo incluir -0.0602
-0.4118 catálogo? me -0.0858
-0.7128 cento do -0.0977
-0.7128 cento o -0.0484
-0.4118 cento? aumentar 0.0269
-0.4118 certeza isso -0.0699
-0.7128 certo positivo 0.1140
-0.7128 certo é -0.0639
-0.4118 certo? bom 0.0292
-0.2917 chegada de -0.0050
-0.4118 chegando? quero -0.0870
-0.4118 china? me -0.0647
-0.4118 clara interface 0.0820
-1.2569 claro alterar -0.0815
-1.2569 claro com -0.0930
-0.8358 claro pode -0.0881
-1.2569 claro quero -0.0977
-1.2569 claro tema -0.0702
-1.2569 claro visual -0.0388
-0.4118 claro? mudar -0.0833
-0.8889 classificação de -0.0978
-0.8889 classificação para -0.0976
-0.8889 classificação registrar 0.2274
-2.4161 cliente ABC -0.0388
-2.4161 cliente Ana 0.1140
-2.4161 cliente Empresa 0.1140
-1.9950 cliente Maria 0.0309
-1.3554 cliente Teste 0.0705
-1.6089 cliente XPTO 0.1140
-2.4161 cliente Z 0.1140
-2.4161 cliente abrir -0.0846
-1.6089 cliente adicionar 0.1330
-2.4161 cliente ajuda 0.8042
-1.6037 cliente cadastrar 0.3362
-1.9950 cliente começar 0.4513
-1.1012 cliente como -0.1288
-2.4161 cliente compras 0.1799
-1.9950 cliente comprou 0.1140
-2.4161 cliente comprou? 0.1140
-1.6037 cliente consultar 0.0297
-2.4161 cliente costuma 0.1140
-2.4161 cliente criar -0.0923
-2.4161 cliente incluir -0.0846
-2.4161 cliente informações 0.2691
-2.4161 cliente inserir -0.0798
-1.9950 cliente joao -0.0258
-2.4161 cliente joao? 0.1140
-1.9950 cliente maria 0.1140
-1.6037 cliente me 0.0554
-2.4161 cliente na -0.0178
-1.6037 cliente novo -0.0508
-1.6037 cliente o -0.2689
-1.6089 cliente pode 0.1562
-1.6037 cliente preciso 0.0346
-1.6089 cliente quais 0.1802
-1.1012 cliente qual -0.4004
-1.4119 cliente quero -0.0410
-1.9950 cliente registrar 0.4493
-1.9950 cliente tem -0.0176
-1.9950 cliente vamos 0.0372
-1.4119 cliente ver 0.2436
-2.4161 cliente à -0.0054
-0.5588 cliente? me 0.0792
-1.3660 cliente? novo -0.0876
-1.3660 cliente? preciso -0.0811
-1.3660 cliente? quero -0.0870
-1.3660 cliente? saldo 0.0435
-0.9449 cliente? ver 0.0633
-1.8267 clientes abrir 0.1027
-1.8267 clientes como -0.0917
-1.8267 clientes deste -0.0054
-1.8267 clientes devedores 0.1140
-1.8267 clientes do -0.0977
-1.8267 clientes geram 0.1140
-1.8267 clientes ir 0.8042
-1.4056 clientes mais -0.0886
-1.8267 clientes me -0.0647
-1.0196 clientes pode 0.1380
-1.8267 clientes por -0.0867
-1.8267 clientes principais? 0.1140
-1.8267 clientes quais -0.0564
-1.4056 clientes qual 0.2192
-1.8267 clientes que -0.0827
-1.8267 clientes quem 0.1572
-1.4056 clientes quero -0.2361
-1.8267 clientes ranking 0.2565
-1.8267 clientes são -0.0867
-1.4056 clientes top -0.1412
-0.8889 clientes? quem 0.1572
-0.8889 clientes? quero -0.0870
-0.8889 clientes? ranking 0.2565
-0.4118 clips? registrar -0.0081
-1.2569 colaborador analisar -0.0546
-1.2569 colaborador como -0.0598
-1.2569 colaborador criar 0.2021
-1.2569 colaborador me -0.0465
-1.2569 colaborador novo -0.0943
-1.2569 colaborador quero -0.0774
-1.2569 colaborador registrar -0.0957
-1.0138 colocar no -0.0867
-1.0138 colocar o -0.0821
-0.5927 colocar um 0.0679
-1.4531 com a -0.0954
-1.4531 com as 0.1073
-1.8742 com baixo -0.0699
-1.8742 com certeza 0.1140
-1.8742 com data 0.3316
-0.8700 com estoque -0.2992
-1.8742 com isso -0.0699
-1.8742 com maior -0.0054
-1.8742 com mais -0.0938
-1.0618 com o -0.0800
-1.8742 com pouca 0.1140
-1.8742 com poucas 0.1140
-1.4531 com pouco 0.1140
-1.0618 com validade -0.0848
-1.8742 com vencimento 0.1140
-0.4118 combinado claro -0.0742
-0.2917 comercial como 0.0119
-1.0138 começar a -0.0972
-0.2066 começar uma -0.0036
-0.4118 começo uma -0.0923
-2.5907 como abro 0.1140
-1.0328 como adicionar -0.0646
-1.7783 como adiciono 0.5802
-2.5907 como agrupar -0.0388
-1.5301 como ajustar 0.4392
-1.7783 como alterar 0.2535
-2.5907 como aprender 0.6669
-2.5907 como atualizar 0.0139
-1.7836 como cadastrar -0.0169
-2.5907 como colocar 0.0292
-2.5907 como comparar 0.1334
-1.5301 como consulto 0.0494
-2.5907 como corrigir 0.0627
-1.2759 como criar -0.6479
-2.1696 como crio 0.3058
-2.5907 como dar 0.0542
-2.1696 como editar -0.1577
-2.1696 como estamos 0.1140
-2.5907 como estamos? 0.1140
-2.1696 como está -0.0479
-2.1696 como estão -0.2480
-0.8779 como eu 0.1868
-2.1696 como exportar 0.0449
-2.5907 como faco 0.1140
-2.1696 como fazer -0.0343
-1.1376 como faço 0.1140
-2.5907 como foi 0.1140
-1.7783 como foram 0.0564
-2.1696 como funciona 0.0271
-2.1696 como gero 0.0271
-2.5907 como inserir 0.1978
-2.1696 como lançar 0.0897
-2.5907 como lanço 0.1140
-2.5907 como modificar -0.0067
-1.7836 como mudar 0.4114
-2.5907 como o -0.0972
-2.5907 como organizar 0.2117
-1.5301 como posso 0.0857
-1.0650 como registrar 0.0518
-2.1696 como se 0.0309
-1.7836 como sei 0.3052
-2.1696 como vai? 0.1140
-1.5866 como vejo 0.0834
-1.7836 como você -0.0639
-0.4118 comparadas às -0.0054
-0.3827 comparar as -0.0067
-1.1899 comparar performance 0.8639
-1.1899 comparar receita -0.0546
-1.1899 comparar vendas -0.0958
-1.1899 comparação com -0.0833
-0.1293 comparação de -0.2389
-0.0817 compare as -0.2602
-1.6905 compra abrir -0.0846
-1.6905 compra adicionar -0.0968
-1.2694 compra como 0.0009
-1.2694 compra de -0.0973
-1.2694 compra fazer 0.1975
-1.6905 compra gerar 0.0435
-1.2694 compra me -0.1361
-1.6905 compra nova -0.0942
-1.6905 compra para -0.0955
-1.6905 compra pode -0.0935
-0.8833 compra quero -0.0829
-1.6905 compra registrar -0.0081
-1.6905 compra vamos -0.0894
-1.1107 comprador adicionar 0.2351
-1.1107 comprador ajuda 0.8042
-1.1107 comprador como -0.0566
-1.1107 comprador incluir -0.0602
-1.1107 comprador novo -0.0972
-0.4118 comprador? quero -0.0679
-0.7128 compradores quais -0.0882
-0.7128 compradores quem -0.0817
-0.4118 compradores? quero -0.0274
-0.4118 comprados? quero -0.0870
-0.4118 compram? me 0.0486
-0.7128 comprar baixo -0.0699
-0.7128 comprar mais -0.0852
-0.4118 comprar? me -0.0465
-0.3757 compras de -0.0136
-0.3245 compras do -0.8069
-1.6905 compras me 0.0486
-1.6905 compras qual 0.4038
-0.7128 comprou histórico 0.6001
-0.7128 comprou quero -0.0274
-0.4118 comprou? me -0.0906
-0.7128 concordo isso -0.0699
-0.7128 concordo plenamente 0.1140
-0.4118 confirmo pode -0.0969
-0.4118 conhece? meus -0.0534
-1.4532 consultar cliente -0.0631
-1.4532 consultar estoque -0.0969
-1.0320 consultar histórico 0.9555
-1.4532 consultar lotes 0.0169
-1.0320 consultar o -0.0700
-1.0320 consultar produtos -0.0037
-1.4532 consultar saldo -0.0798
-1.4532 consultar vendas -0.0020
-1.1107 consulto as -0.0603
-0.6896 consulto o 0.0005
-0.6896 consulto os 0.1481
-0.8889 conta de -0.0978
-0.8889 conta novo -0.0972
-0.8889 conta para -0.0841
-0.4678 contagem de -0.0304
-0.8889 contagem do -0.0451
-0.4118 contar uma -0.0964
-0.4118 contas a -0.0972
-1.1107 contato de -0.0865
-0.2983 contato do -0.2268
-0.4118 continuar prossiga 0.1140
-0.4118 continue deixa -0.0546
-0.7128 cor do -0.0958
-0.7128 cor favorita? 0.1140
-0.4118 correto sim, 0.1140
-1.0138 correção de -0.0773
-1.0138 correção do -0.0977
-1.0138 correção no 0.2021
-1.0138 correção num 0.1140
-0.5077 corrigir a -0.3769
-1.3149 corrigir meu 0.1334
-0.5077 corrigir o -0.0418
-1.3149 corrigir um -0.0471
-0.4118 corrijo a -0.0152
-0.4118 costuma comprar? 0.1140
-0.4118 cotação do -0.0977
-0.4118 credenciais de -0.0985
-0.4118 cria um -0.0489
-2.2443 criar acesso -0.0742
-2.2443 criar agrupamento -0.0054
-1.8232 criar categoria 0.0347
-1.8232 criar cliente -0.0511
-2.2443 criar conta -0.0388
-2.2443 criar credenciais 0.1140
-1.8232 criar fornecedor 0.0003
-1.8232 criar item -0.0243
-1.8232 criar novo -0.0857
-2.2443 criar pedido 0.0566
-2.2443 criar perfil -0.0699
-1.2401 criar produto -0.0256
-0.3010 criar um 0.0003
-0.8325 criar uma -0.0089
-2.2443 criar usuário -0.0857
-2.2443 criar utilizador -0.0304
-0.4118 criação de -0.0318
-0.1293 crio um -0.0414
-1.1899 crio uma -0.0732
-0.4118 criou? qual 0.4038
-1.6159 crédito crédito 0.2021
-0.8035 crédito de -0.0275
-1.6159 crédito disponível -0.0054
-0.3010 crédito do -0.8530
-1.6159 crédito o -0.0502
-1.6159 crédito tem 0.0331
-0.8889 crédito? como -0.0875
-0.4678 crédito? qual 0.2192
-0.4118 crítico de -0.0945
-0.4678 csv como -0.0338
-0.8889 csv relatorio 0.6669
-0.4118 curta me 0.0486
-0.4118 curta? quero -0.0274
-1.3660 da Terra 0.1140
-1.3660 da aplicação 0.1140
-0.9449 da caneta? 0.4823
-1.3660 da china? 0.1140
-1.3660 da frança 0.1140
-1.3660 da lista 0.5032
-1.3660 da validade -0.0798
-1.3660 da vida? 0.1140
-1.6422 dados cadastrais 0.1140
-1.6422 dados criar 0.2021
-0.3274 dados de -0.1769
-0.3854 dados do 0.1942
-0.7128 dados? adicionar -0.0934
-0.7128 dados? novo -0.0566
-1.1667 dar acesso -0.0013
-0.5272 dar entrada 0.5068
-1.5879 dar o -0.0947
-0.7807 dar os 0.2639
-0.7807 dar um -0.0783
-1.5879 dar uma -0.0964
-0.4118 dark interface -0.0388
-0.4118 dark? quero -0.0913
-1.1107 das finanças -0.0054
-1.1107 das informações 0.2691
-0.6896 das vendas -0.0589
-1.1107 das vendas? -0.0798
-0.4118 dashboard acessar -0.0388
-0.2014 data de -0.3713
-2.1968 de 10 -0.0054
-3.0039 de 10% -0.0388
-3.0039 de 100 0.1140
-3.0039 de 15% 0.1140
-3.0039 de 2 -0.0388
-3.0039 de 4 -0.0054
-3.0039 de 5 -0.0546
-3.0039 de 50 0.0820
-3.0039 de 50% 0.1140
-2.5828 de Y 0.1140
-3.0039 de acesso -0.0304
-2.5828 de adicionar 0.0505
-3.0039 de agrafador 0.1140
-1.9433 de ajuda 0.6598
-3.0039 de algo -0.0388
-3.0039 de alterações 0.1140
-3.0039 de analisar -0.0546
-2.5828 de atenção 0.1140
-3.0039 de atenção? 0.1140
-3.0039 de atualizar -0.0833
-3.0039 de auditoria 0.1140
-3.0039 de bens 0.1140
-3.0039 de bolo? 0.1140
-3.0039 de borracha -0.0546
-2.5828 de borrachas -0.0388
-2.5828 de cadastro -0.0901
-3.0039 de caderno 0.1140
-3.0039 de cadernos -0.0054
-2.1968 de caneta 0.0160
-3.0039 de canetas -0.0639
-3.0039 de casa? 0.1140
-3.0039 de categorias 0.1140
-2.1968 de cliente -0.0493
-2.1968 de clientes -0.0678
-1.4460 de compra 0.0942
-2.5828 de compradores 0.1140
-1.5922 de compras 0.8875
-3.0039 de consultar -0.0566
-2.1915 de contato 0.0390
-3.0039 de criar 0.2021
-1.9998 de crédito 0.1261
-3.0039 de crédito? -0.0388
-3.0039 de dados 0.1773
-2.5828 de dados? 0.1140
-3.0039 de desempenho 0.0004
-2.5828 de detalhes -0.1723
-3.0039 de dia -0.0054
-3.0039 de dois 0.1140
-3.0039 de entradas 0.1140
-1.3134 de estoque 0.2598
-1.9998 de estoque? 0.1609
-3.0039 de expirar? 0.1140
-3.0039 de faturamento 0.1140
-3.0039 de fazer -0.0908
-2.5828 de fornecedor -0.0226
-3.0039 de fornecedores 0.1140
-3.0039 de futebol? 0.1140
-3.0039 de gerar -0.0798
-3.0039 de gestão 0.2117
-3.0039 de histórico 0.6001
-1.9433 de hoje 0.1140
-3.0039 de inventario -0.0054
-1.9433 de inventário 0.0303
-3.0039 de inventário? -0.0054
-3.0039 de início 0.1140
-3.0039 de item -0.0525
-1.9433 de itens -0.0696
-3.0039 de joao -0.0639
-3.0039 de lapis -0.0699
-3.0039 de lista 0.5032
-2.5828 de log 0.6196
-3.0039 de lote -0.0428
-2.1915 de lotes -0.0208
-3.0039 de maior -0.0054
-1.7471 de me -0.2128
-3.0039 de melhores 0.2565
-3.0039 de mercadoria 0.1140
-3.0039 de mercadoria? 0.1140
-3.0039 de metas 0.1140
-2.5828 de movimentações -0.0475
-1.7471 de movimentos 0.0713
-3.0039 de mudar 0.4654
-3.0039 de música? 0.2117
-3.0039 de negócio 0.1140
-3.0039 de negócios 0.1140
-3.0039 de novos 0.1140
-2.5828 de ontem -0.0054
-3.0039 de ontem? 0.1140
-3.0039 de painel 0.2565
-2.5828 de pedidos 0.1140
-3.0039 de pi? 0.1140
-1.5508 de pode 0.0790
-2.1968 de preciso -0.1769
-2.1968 de produto -0.0515
-1.2911 de produtos 0.0309
-2.5828 de produtos? 0.1766
-2.5828 de quais -0.0681
-1.5508 de qual 0.6509
-3.0039 de quantas 0.3229
-3.0039 de quantidade 0.1564
-3.0039 de quanto 0.0820
-1.6379 de quero -0.1789
-3.0039 de reposição 0.1140
-3.0039 de saldo 0.0415
-3.0039 de serviços 0.1140
-3.0039 de seção 0.2048
-3.0039 de tela 0.3316
-2.1968 de tem -0.3286
-3.0039 de teste 0.1140
-3.0039 de trabalho -0.0054
-3.0039 de transações 0.1140
-0.8440 de um 0.2352
-2.1968 de uma -0.0760
-3.0039 de unidades -0.0833
-3.0039 de uso 0.1140
-2.5828 de usuário 0.0096
-3.0039 de usuários 0.1140
-3.0039 de utilizador? 0.1140
-2.1915 de validade -0.0168
-2.5828 de vencer -0.0639
-2.5828 de vencer? 0.0309
-1.9998 de venda -0.0525
-1.1151 de vendas 0.1908
-1.9998 de vendas? 0.1656
-3.0039 de ver -0.0001
-2.1968 de verificar -0.1568
-3.0039 de área 0.2117
-1.0138 definir a -0.0152
-1.0138 definir o -0.0484
-1.0138 definir um 0.0036
-1.0138 definir uma -0.0964
-1.0138 deixa melhor 0.0820
-0.5927 deixa pra 0.1140
-1.0138 deixa quieto 0.1140
-0.4118 deixar qual 0.0386
-0.4118 descobriu o -0.0983
-0.3035 desempenho de -0.4259
-0.6896 desempenho do -0.2761
-0.7128 deste mês -0.0388
-0.7128 deste período? 0.1140
-0.1963 detalhes de -0.1370
-0.6460 detalhes do -0.3132
-1.4532 detalhes dos -0.0388
-0.4118 devedor do 0.0484
-0.4118 devedores na -0.0699
-0.4118 dever de -0.0985
-0.4118 devo fazer -0.0908
-0.7128 dia boa -0.0639
-0.7128 dia quero -0.0913
-0.7128 dia, assistente 0.0004
-0.7128 dia, como -0.0978
-0.4118 dias? quais -0.0071
-0.4118 dica para -0.0906
-0.4118 diferença de -0.0642
-1.5879 diga a -0.0152
-1.1667 diga as 0.1073
-1.5879 diga como -0.0959
-1.5879 diga meus 0.0949
-0.7755 diga o -0.1042
-0.5272 diga os 0.0221
-1.5879 diga quais -0.0071
-0.8889 diminuir 5% -0.0054
-0.8889 diminuir em -0.0950
-0.8889 diminuir o -0.0484
-0.7128 disponibilidade de -0.0888
-0.7128 disponibilidade do 0.0280
-0.4118 disponíveis para 0.0164
-0.7128 disponível do 0.0280
-0.7128 disponível para 0.0164
-0.4118 distância da -0.0798
-0.7128 diurno mudar 0.4654
-0.7128 diurno ola 0.1140
-1.0138 dizer meus -0.0808
-0.5927 dizer o -0.0873
-1.0138 dizer qual -0.0965
-2.5761 do Egito 0.1140
-1.7689 do artigo 0.1734
-2.5761 do catálogo -0.0054
-0.5411 do cliente -0.0486
-2.5761 do cliente? -0.0798
-2.5761 do colaborador -0.0742
-2.5761 do dólar? 0.1140
-2.1550 do estoque 0.0228
-2.5761 do extrato 0.2117
-2.1550 do fornecedor -0.0322
-2.5761 do funcionário -0.0639
-1.7689 do histórico 0.8415
-2.5761 do inventario -0.0054
-2.5761 do inventário -0.0044
-1.1230 do item -0.0935
-2.5761 do joao -0.0639
-0.9339 do lote 0.1641
-2.5761 do mes 0.1140
-2.5761 do mês -0.0388
-2.1550 do mês? 0.0174
-0.5962 do produto -0.1045
-2.5761 do relatório 0.3348
-1.7637 do sistema -0.0190
-2.1550 do sistema? -0.0054
-2.5761 do telefone 0.2117
-2.5761 do tempo? 0.1140
-2.5761 do utilizador -0.0742
-2.5761 do vencimento? 0.1140
-1.7689 do vendedor -0.0200
-2.5761 do vendedor? 0.1140
-0.7128 documento com -0.0833
-0.7128 documento de -0.0773
-0.4118 dois períodos? 0.1140
-0.8889 dos lotes 0.0169
-0.8889 dos meus -0.0921
-0.8889 dos principais 0.6669
-1.3149 dê o -0.0948
-1.3149 dê os -0.0857
-0.2542 dê um -0.2122
-1.3149 dê uma -0.0964
-0.4118 dólar? quem -0.0817
-1.1899 e a -0.0972
-1.1899 e aí 0.1140
-1.1899 e aí, 0.1140
-1.1899 e me -0.0717
-1.1899 e o -0.0983
-1.1899 e saídas 0.1140
-1.4118 editar a -0.0152
-1.4118 editar as -0.0043
-1.4118 editar item -0.0950
-1.4118 editar lote -0.0963
-0.9907 editar o -0.0539
-0.5994 editar um -0.2629
-0.4118 edito um -0.0763
-0.4118 efetuar uma -0.0445
-2.0452 em -15% 0.1140
-1.6241 em 10 -0.2024
-1.6241 em 10% 0.0309
-1.6241 em 20% 0.1140
-2.0452 em 25% 0.1140
-2.0452 em 30 -0.0054
-2.0452 em 5%? 0.1140
-2.0452 em alerta 0.1140
-1.6241 em breve? 0.0271
-2.0452 em categorias? 0.1140
-2.0452 em comparação -0.0699
-1.6241 em csv 0.1766
-0.7884 em estoque 0.1590
-2.0452 em estoque? 0.0033
-1.2328 em falta 0.1140
-2.0452 em formato 0.1140
-2.0452 em frente 0.1140
-2.0452 em mercadorias 0.1140
-2.0452 em nível -0.0054
-2.0452 em ordem? 0.1140
-1.2328 em pdf 0.2118
-2.0452 em pdf? 0.1140
-2.0452 em percentual -0.0054
-2.0452 em porcentagem 0.1140
-2.0452 em produtos? 0.0820
-2.0452 em relação 0.1140
-0.7128 encomenda fazer 0.1819
-0.7128 encomenda registrar -0.0957
-0.7128 encomendar 20 -0.0054
-0.7128 encomendar produtos -0.0959
-0.7128 endereço de -0.0888
-0.7128 endereço do 0.0484
-0.2917 ensine a -0.0665
-1.5879 entrada adicionar -0.0934
-0.1761 entrada de -0.1081
-1.1667 entrada em -0.0910
-1.5879 entrada no 0.2021
-1.5879 entrada preciso -0.0962
-0.4118 entrada? entrada 0.3782
-0.4118 entradas e -0.0699
-0.4118 entre esta 0.2117
-0.4118 equipa criar -0.0964
-0.7128 escura alterar 0.0373
-0.7128 escura visual -0.0388
-0.8358 escuro modo -0.0479
-0.8358 escuro pode -0.0881
-1.2569 escuro quero -0.0913
-0.8358 escuro tema 0.0086
-0.7128 esquece isso -0.0699
-0.7128 esquece não -0.0466
-0.2917 esta semana 0.0309
-0.4678 estado de -0.2164
-0.8889 estado do 0.0280
-0.7128 estamos de -0.0945
-0.7128 estamos esta 0.2117
-0.4118 estamos? boa 0.0004
-0.4118 estao para -0.0976
-0.2014 este mês? 0.0441
-2.3463 estoque a -0.0943
-2.3463 estoque acertar 0.1334
-2.3463 estoque adicionar -0.0968
-2.3463 estoque ajuda 0.8042
-2.3463 estoque ajustar 0.1819
-1.9252 estoque ajuste 0.6158
-2.3463 estoque aumentar 0.0269
-1.5391 estoque baixo -0.0054
-1.9252 estoque baixo? 0.1140
-0.9803 estoque como 0.0427
-1.9252 estoque consultar -0.0393
-0.6335 estoque de -0.0827
-0.9345 estoque do -0.0983
-1.2856 estoque em -0.0486
-2.3463 estoque ir 0.8042
-2.3463 estoque manual -0.0388
-1.9252 estoque me 0.0974
-2.3463 estoque modificar -0.0633
-2.3463 estoque mínimo 0.1140
-1.5391 estoque para -0.0909
-2.3463 estoque percentualmente 0.1140
-1.9252 estoque pode -0.0287
-1.2856 estoque preciso 0.0478
-2.3463 estoque produtos -0.0135
-2.3463 estoque qual 0.0386
-1.2856 estoque quero -0.0699
-2.3463 estoque reduzir -0.0546
-2.3463 estoque registrar -0.0957
-2.3463 estoque vamos -0.0735
-1.4909 estoque? adicionar -0.0854
-1.4909 estoque? como -0.0660
-1.4909 estoque? me -0.0465
-1.4909 estoque? pode -0.0311
-0.6786 estoque? preciso -0.1533
-1.4909 estoque? produtos -0.0959
-0.6838 estoque? quero -0.0516
-0.4118 estrela qual 0.4038
-1.2569 está acabando -0.0546
-1.2569 está aí? 0.1140
-1.2569 está certo -0.0054
-1.2569 está em -0.0727
-1.2569 está o -0.0983
-1.2569 está oi, -0.0546
-1.2569 está se -0.0388
-0.4118 está? oi, -0.0546
-1.1046 estão acabando -0.1554
-1.5257 estão acabando? 0.1140
-1.1046 estão as 0.1073
-1.5257 estão com -0.0360
-1.5257 estão em -0.0950
-1.5257 estão expirando 0.1140
-1.5257 estão no -0.0867
-1.5257 estão para -0.0955
-1.1046 estão perto 0.6793
-1.5257 estão próximos -0.0054
-0.6522 eu adiciono 0.8638
-1.7128 eu ajusto 0.1140
-1.7128 eu altero 0.1140
-1.7128 eu cadastro -0.0742
-1.7128 eu começo 0.1140
-1.7128 eu corrijo 0.1140
-0.9004 eu crio 0.3764
-1.7128 eu edito 0.1140
-1.7128 eu peço 0.1140
-0.9056 eu registro -0.1153
-1.7128 eu vendo 0.1140
-0.4118 evolução das -0.0639
-0.4118 existem para -0.0976
-0.7128 existente? preciso -0.0811
-0.7128 existente? quero -0.0914
-0.4118 expiram em -0.0950
-0.4118 expirando quais -0.0564
-0.8889 expirar consultar -0.0566
-0.8889 expirar em -0.0884
-0.8889 expirar me -0.0647
-0.4118 expirar? me 0.0486
-0.2917 explique como -0.0305
-1.1107 exportar as 0.1015
-1.1107 exportar dados -0.0889
-0.6896 exportar o -0.0813
-1.1107 exportar os -0.0431
-0.2917 extrato de -0.0899
-0.4118 faco para -0.0506
-1.4118 fale o -0.0484
-0.6046 fale os 0.0627
-1.4118 fale qual 0.4038
-1.4118 fale quem 0.1572
-0.5994 fale sobre 0.0441
-1.0138 falta consultar -0.0566
-1.0138 falta me -0.0647
-1.0138 falta pode 0.1300
-1.0138 falta quais -0.0564
-0.0817 família de -0.1889
-0.4118 faturamento comparar -0.0699
-0.4118 faturamento? resumo -0.0798
-1.3149 favor abrir 0.1027
-0.8937 favor adicionar 0.2396
-1.3149 favor colocar 0.0292
-1.3149 favor como -0.0660
-0.8937 favor não -0.0249
-1.3149 favor pode -0.0935
-0.4118 favorita? você -0.0192
-0.4118 faz a -0.0785
-1.7340 fazer a -0.0972
-1.7340 fazer agora? 0.1140
-1.7340 fazer algo? 0.1140
-1.7340 fazer meu -0.0699
-1.7340 fazer não -0.0798
-1.7340 fazer pedido -0.0067
-0.9216 fazer um -0.1680
-0.3222 fazer uma -0.1076
-1.7340 fazer vá 0.1140
-0.4118 faça isso -0.0699
-0.0414 faço para 0.0075
-1.4532 faço um -0.0877
-0.4118 fechado combinado 0.1140
-0.4118 fechou nao 0.1140
-0.4118 filme qual 0.0386
-0.4118 fim? ver -0.0001
-0.7688 financeiro como -0.0948
-1.1899 financeiro do -0.0958
-0.7688 financeiro me -0.0371
-1.1899 financeiro qual 0.0386
-0.4118 financeiro? resumo 0.0415
-0.7128 finanças como -0.0916
-0.7128 finanças este 0.3316
-0.4118 finanças? quero -0.0274
-0.4118 fiéis lista 0.5032
-0.4118 foi a -0.0876
-0.2014 foram as -0.1737
-0.2917 forma de -0.0973
-0.4118 formato csv 0.0820
-1.9432 fornecedor ABC -0.0388
-1.9432 fornecedor Penta 0.1140
-1.5221 fornecedor adicionar 0.2396
-1.9432 fornecedor ajuda 0.8042
-1.9432 fornecedor ao -0.0372
-1.1309 fornecedor cadastrar 0.4415
-0.8826 fornecedor como 0.1092
-1.9432 fornecedor criar 0.2021
-1.1361 fornecedor de -0.0752
-1.9432 fornecedor gerar -0.0798
-1.5221 fornecedor incluir 0.3164
-1.9432 fornecedor me -0.0976
-1.5221 fornecedor nova -0.0624
-1.1361 fornecedor novo -0.0287
-1.9432 fornecedor novo? 0.3229
-1.9432 fornecedor preciso -0.0962
-1.9432 fornecedor quero -0.0679
-1.9432 fornecedor registrar 0.2274
-1.5221 fornecedor vamos 0.0372
-0.4118 fornecedor, por 0.2691
-1.1107 fornecedor? adicionar -0.0934
-0.6896 fornecedor? novo -0.0766
-1.1107 fornecedor? preciso -0.0962
-1.1107 fornecedor? quero -0.0679
-0.4118 fornecedores navegar 0.6669
-0.4118 frança você -0.0192
-0.4118 frase para -0.0906
-0.4118 frente concordo -0.0054
-0.4118 frequentes? ver -0.0001
-0.2917 funciona para 0.0121
-0.4118 funciona? pode 0.1300
-1.1107 funcionário adicionar 0.2351
-1.1107 funcionário criar -0.0964
-1.1107 funcionário novo -0.0943
-1.1107 funcionário qual 0.4038
-1.1107 funcionário ver -0.0960
-0.4118 futebol? você -0.0875
-0.4118 ganhou o -0.0983
-0.4118 geral? me 0.0486
-0.4118 geram mais -0.0938
-1.3660 gerar ordem 0.8042
-1.3660 gerar relatorio 0.6669
-0.9449 gerar relatório -0.0808
-1.3660 gerar relatórios 0.1140
-0.5536 gerar um -0.1488
-0.2917 gero um -0.0789
-0.2917 gestão de -0.0980
-0.4118 gosta de -0.0985
-0.4118 gostaria de -0.0978
-0.7128 grupo como -0.0566
-0.7128 grupo de -0.0761
-0.2014 guia para 0.0154
-0.4118 guiar na -0.0699
-0.4118 guie na -0.0699
-1.2569 habito cadastrar 0.3448
-1.2569 habito criar -0.0923
-1.2569 habito definir -0.0546
-1.2569 habito inicie 0.1140
-0.8358 habito quero -0.0598
-1.2569 habito vamos -0.0735
-1.1107 habitos meus -0.0534
-0.6896 habitos quais -0.0908
-1.1107 habitos registrados -0.0054
-1.1107 habitos voce 0.1140
-0.2983 historico de -0.2642
-1.1107 historico do 0.0280
-0.4118 história do -0.0977
-0.0969 histórico de -0.0451
-0.9517 histórico do 0.0969
-1.9558 histórico para -0.0955
-1.1107 hoje com -0.0833
-1.1107 hoje comparadas 0.1140
-1.1107 hoje em -0.0950
-1.1107 hoje quais -0.0071
-1.1107 hoje vs 0.1140
-0.4118 hoje? tem -0.0720
-0.4118 horas são? 0.1140
-1.3660 hábito como -0.0598
-0.9449 hábito de -0.0980
-0.9449 hábito manual 0.0309
-1.3660 hábito para -0.0955
-1.3660 hábito personalizado? 0.1140
-1.3660 hábito quero -0.0914
-1.3660 hábito registrar -0.0957
-0.4118 hábito? adicionar -0.0968
-1.4909 hábitos aprendidos 0.1140
-1.0698 hábitos de -0.0980
-1.4909 hábitos gerar -0.0798
-1.4909 hábitos listar -0.0067
-1.0698 hábitos pode 0.2520
-1.4909 hábitos quais -0.0724
-1.4909 hábitos que -0.0928
-1.4909 hábitos registrados -0.0054
-1.4909 hábitos ver -0.0960
-1.4909 hábitos você -0.0875
-0.8889 hábitos? quais -0.0071
-0.8889 hábitos? quero -0.0274
-0.8889 hábitos? ver -0.0802
-0.4118 importantes? ver 0.0592
-0.4118 inativar o -0.0700
-1.4909 incluir cliente -0.0972
-1.4909 incluir fornecedor -0.0939
-1.0698 incluir novo 0.0071
-1.4909 incluir produto -0.0950
-0.2341 incluir um -0.1863
-0.7128 informar o -0.0924
-0.7128 informar os -0.0549
-0.5537 informações de -0.1547
-0.2430 informações do 0.1389
-0.4678 informe o -0.0314
-0.8889 informe sobre -0.0178
-1.1107 iniciar o -0.0948
-0.6896 iniciar um -0.1811
-1.1107 iniciar uma 0.0347
-1.1107 iniciar venda -0.0938
-0.4118 inicie uma -0.0445
-1.3660 inserir dados 0.1316
-1.3660 inserir fornecedor -0.0659
-1.3660 inserir novo -0.0810
-1.3660 inserir produto -0.0950
-0.3054 inserir um -0.1366
-0.4118 insight tem -0.0720
-0.4118 insight? quais -0.0724
-1.0138 insights de -0.0939
-0.5927 insights do -0.2760
-1.0138 insights pode 0.1300
-0.4118 inteligência artificial? 0.1140
-0.8889 interface clara 0.1140
-0.4678 interface escura 0.1140
-0.7128 inventario de -0.0888
-0.7128 inventario em -0.0884
-0.9004 inventário como -0.0195
-1.7128 inventário corrigir 0.0627
-1.7128 inventário de -0.0978
-1.2917 inventário do -0.2495
-1.7128 inventário em -0.0884
-1.7128 inventário gerar 0.0435
-1.7128 inventário incluir -0.0846
-1.7128 inventário pode 0.1300
-1.7128 inventário preciso 0.0703
-0.7086 inventário quero 0.0015
-1.7128 inventário registrar 0.2274
-0.7128 inventário? quais -0.0071
-0.7128 inventário? quero -0.0958
-0.4118 início quero -0.0977
-0.0580 ir para -0.0572
-1.3149 ir por -0.0867
-1.1899 isso aborte 0.1140
-1.1899 isso correto 0.1140
-1.1899 isso deixa 0.0292
-1.1899 isso mesmo 0.1140
-1.1899 isso ok, 0.1140
-1.1899 isso pare 0.1140
-1.6341 item adicionar 0.0505
-1.6341 item ajuda 0.6196
-2.0552 item ajuste 0.4904
-2.0552 item alterar -0.0924
-1.2428 item ao -0.0292
-2.0552 item cadastrar -0.0921
-2.0552 item com -0.0930
-0.9946 item como 0.0176
-2.0552 item de -0.0985
-2.0552 item do -0.0977
-1.6341 item mais -0.0593
-0.9946 item me 0.0790
-2.0552 item no -0.0140
-1.2480 item novo -0.0744
-2.0552 item por 0.2691
-2.0552 item preciso -0.0811
-1.6341 item quais 0.0460
-2.0552 item quantas 0.3229
-1.6341 item que -0.0765
-1.2480 item quero -0.0172
-2.0552 item sai 0.1140
-1.2480 item ver 0.0744
-1.1899 item? fazer 0.1819
-0.7688 item? me -0.0372
-1.1899 item? nova -0.0942
-1.1899 item? novo -0.0415
-1.1899 item? quero -0.0958
-1.7542 itens adicionar 0.2351
-1.7542 itens ao -0.0380
-1.3331 itens com -0.0531
-1.3331 itens como -0.0455
-1.7542 itens criar -0.0298
-0.9470 itens em 0.0148
-0.9470 itens estão -0.0343
-1.7542 itens para 0.0164
-1.7542 itens perto 0.8639
-1.7542 itens pode -0.0855
-1.3331 itens precisam 0.2785
-1.7542 itens que -0.0585
-1.3331 itens quero -0.0841
-1.7542 itens têm 0.1140
-0.4118 itens? quero -0.0774
-1.1107 joao este 0.3316
-1.1107 joao quanto 0.0820
-1.1107 joao quero -0.0913
-1.1107 joao silva 0.1140
-1.1107 joao ver -0.0960
-0.4118 joao? ver -0.0691
-0.4118 jogo de -0.0985
-0.4118 la n 0.1140
-1.0138 lançar a -0.0785
-1.0138 lançar o -0.0972
-0.5927 lançar uma 0.1104
-0.4118 lanço uma -0.0825
-1.1899 lapis aumentar -0.0521
-1.1899 lapis do -0.0451
-1.1899 lapis em -0.0950
-1.1899 lapis historico 0.2048
-1.1899 lapis me 0.0486
-1.1899 lapis quero -0.0958
-0.4118 lapis? stock 0.0004
-0.4118 layout para -0.0976
-0.4118 lembrar de -0.0985
-0.2917 lembre de -0.0957
-0.7128 lembrete como -0.0959
-0.7128 lembrete periódico 0.1140
-0.2014 leve para -0.0447
-0.7128 light quero -0.0977
-0.7128 light tema -0.0882
-0.1249 lista de -0.3072
-1.4909 lista dos -0.0388
-1.4909 lista pode -0.0855
-1.4909 lista quero -0.0679
-1.5257 listar as -0.0603
-0.7185 listar meus 0.1809
-1.5257 listar o -0.0557
-0.2109 listar os 0.0401
-0.8889 liste as -0.0603
-0.8889 liste o -0.0557
-0.8889 liste os 0.0798
-0.0580 log de -0.1749
-1.0138 login ajuda 0.8042
-0.5927 login como -0.2218
-1.0138 login para -0.0976
-2.2313 lote 123 0.1140
-2.2313 lote ABC -0.0388
-2.2313 lote K10 0.1140
-2.2313 lote L1 0.1140
-2.2313 lote L123 0.1140
-2.2313 lote MON-24 0.1140
-2.2313 lote XYZ 0.1140
-2.2313 lote a -0.0943
-2.2313 lote abc 0.1140
-2.2313 lote adicionar -0.0934
-2.2313 lote ajuda 0.8042
-2.2313 lote ajustar -0.0908
-2.2313 lote ajuste 0.4904
-2.2313 lote alterar -0.0815
-0.5891 lote como 0.0248
-1.1707 lote de -0.1893
-1.8102 lote entrada 0.1936
-2.2313 lote existente? -0.0054
-1.8102 lote me -0.0921
-1.4241 lote modificar 0.0558
-2.2313 lote mostrar -0.0521
-2.2313 lote novo -0.0943
-2.2313 lote novo? 0.3229
-0.9165 lote pode -0.4594
-2.2313 lote preciso -0.0811
-1.4241 lote qual 1.1551
-1.1707 lote quero -0.0397
-2.2313 lote tutorial 0.3316
-2.2313 lote vamos -0.0894
-1.5879 lote? ajuda 0.8042
-1.1667 lote? como -0.0886
-1.5879 lote? editar -0.0817
-0.7807 lote? me 0.1074
-0.7755 lote? preciso -0.0517
-0.7755 lote? quero -0.0711
-1.6628 lotes a -0.2722
-1.2767 lotes com -0.1671
-2.0839 lotes consultar -0.0833
-2.0839 lotes da -0.0466
-0.6307 lotes de -0.0810
-2.0839 lotes disponíveis 0.1140
-0.6307 lotes do -0.5929
-2.0839 lotes em -0.0217
-2.0839 lotes estao 0.1140
-2.0839 lotes estão -0.0857
-2.0839 lotes existem 0.1140
-1.2715 lotes para -0.0875
-2.0839 lotes próximos -0.0054
-1.0797 lotes que -0.1308
-2.0839 lotes temos -0.0388
-2.0839 lotes vencem 0.1140
-0.4118 lá não, -0.0639
-0.4118 líder de -0.0642
-0.7128 maior saída? 0.1140
-0.7128 maior sucesso? 0.1140
-0.4118 maiores compradores? 0.1140
-1.9303 mais compra -0.0749
-1.9303 mais compram? 0.1140
-1.9303 mais estoque -0.0509
-1.9303 mais fiéis 0.1140
-1.9303 mais frequentes? 0.1140
-1.9303 mais importantes? 0.1140
-1.5092 mais itens -0.2629
-1.9303 mais material 0.1140
-1.9303 mais no 0.2021
-1.9303 mais pode -0.0969
-1.5092 mais popular 0.1140
-1.9303 mais popular? 0.1140
-1.5092 mais produtos -0.0878
-1.9303 mais receita? 0.1140
-1.9303 mais saída 0.1140
-1.9303 mais unidades 0.0139
-1.9303 mais valiosos? 0.1140
-1.9303 mais vendas? 0.0415
-1.9303 mais vende? 0.1140
-0.8696 mais vendido 0.0857
-1.1231 mais vendido? 0.0626
-1.1231 mais vendidos 0.0626
-0.7128 mais? mais -0.0359
-0.7128 mais? quero -0.0515
-0.4118 mandar bala 0.1140
-0.8889 manual como -0.0916
-0.8889 manual me -0.0858
-0.8889 manual preciso -0.0811
-0.7128 maria historico 0.2048
-0.7128 maria quais -0.0564
-0.4118 maria? me 0.0486
-0.4118 material nova -0.0864
-2.5323 me ajuda -0.0918
-1.1206 me ajudar 0.0000
-2.5323 me ajudar? -0.0054
-1.5282 me ajude 0.0450
-2.5323 me contar 0.1140
-1.2175 me dar -0.1286
-0.9445 me diga 0.1800
-1.7199 me dizer 0.0775
-1.2175 me dê 0.2982
-2.1112 me ensine 0.0271
-2.1112 me explique 0.0271
-1.1206 me fale 0.1252
-2.5323 me guiar 0.1140
-2.5323 me guie 0.1140
-2.1112 me informar 0.1140
-1.7252 me informe 0.0626
-2.5323 me lembrar 0.1140
-2.1112 me lembre 0.0271
-1.7199 me leve 0.0564
-1.7252 me liste 0.1140
-1.2755 me mostrar -0.0679
-0.5408 me mostre 0.2370
-2.5323 me recomende 0.1140
-2.5323 me sugira 0.1140
-0.4678 melhor não -0.0598
-0.8889 melhor time 0.1140
-0.2527 melhores clientes -0.0396
-1.2569 melhores clientes? -0.0388
-0.7128 membro quero -0.0914
-0.7128 membro à -0.0054
-0.4118 membro? adicionar 0.2351
-0.4118 mensais qual 0.0386
-0.4118 mercadoria como -0.0566
-0.4118 mercadoria? como -0.0598
-0.4118 mercadorias como -0.0372
-0.4118 mes quem 0.1572
-0.4118 mesas para -0.0859
-0.4118 mesmo pode -0.0969
-0.4118 metas ir 0.8042
-1.1899 meu dever 0.1140
-0.7688 meu estoque -0.0487
-0.3827 meu inventário -0.1448
-1.3886 meus clientes -0.0747
-1.8097 meus clientes? -0.0388
-1.0025 meus habitos 0.0945
-0.4437 meus hábitos 0.0036
-1.0025 meus hábitos? 0.1140
-1.8097 meus itens -0.0782
-1.8097 meus itens? 0.1140
-1.8097 meus maiores 0.1140
-1.3886 meus melhores 0.3148
-1.8097 meus padrões? 0.1140
-1.8097 meus produtos -0.0789
-0.4118 mim tudo -0.0304
-0.6896 mim? me -0.1361
-1.1107 mim? o -0.0804
-1.1107 mim? qual 0.0386
-1.1107 mim? vender -0.0882
-0.7128 minhas ações 0.1140
-0.7128 minhas rotinas 0.1140
-1.5257 modificar informações 0.2691
-1.1046 modificar lote -0.2532
-0.7133 modificar o -0.1590
-1.1046 modificar os 0.0073
-1.5257 modificar produto -0.0950
-0.7185 modificar um -0.1044
-1.2569 modo claro -0.0742
-0.8358 modo diurno 0.1140
-0.8358 modo escuro 0.0510
-1.2569 modo noturno -0.0054
-1.2569 modo noturno? 0.1140
-0.4118 monitor para -0.0859
-1.4118 mostrar a -0.0876
-0.9907 mostrar como -0.0305
-0.9907 mostrar o -0.2403
-0.9907 mostrar onde 0.1140
-0.9907 mostrar os 0.0880
-1.4118 mostrar painel 0.2565
-1.5704 mostre a -0.0829
-0.9309 mostre as 0.4164
-1.5704 mostre como -0.0554
-1.1844 mostre meus 0.2024
-0.3757 mostre o 0.0086
-0.6255 mostre os 0.1217
-1.9915 mostre todos 0.2117
-0.7688 movimentações de -0.0737
-0.3775 movimentações do -0.1652
-1.2569 movimentos da -0.0466
-0.8358 movimentos de -0.0784
-0.8358 movimentos do -0.1566
-1.2569 movimentos me -0.0905
-1.2569 movimentos para -0.0955
-0.1383 mudar o -0.2661
-1.4532 mudar os -0.0431
-1.4532 mudar para 0.0164
-1.4532 mudar tema -0.0882
-0.2917 mude para -0.1683
-0.4118 médio? resumo 0.0435
-0.8889 mês atual -0.0054
-0.8889 mês com -0.0595
-0.8889 mês passado 0.1140
-1.1899 mês? como -0.0959
-0.7688 mês? me 0.0872
-0.7688 mês? pode 0.2520
-1.1899 mês? qual 0.4038
-0.4118 mínimo como -0.0917
-0.4118 módulo de -0.0642
-0.2917 música? qual 0.2192
-0.4118 n negativo 0.1140
-1.1899 na adição 0.1140
-1.1899 na base 0.2117
-1.1899 na criação 0.1140
-0.7688 na lista -0.0699
-1.1899 na sexta 0.1140
-0.4118 nao cancelar -0.0054
-0.0817 navegar para 0.0197
-0.4118 necessário pode -0.0969
-0.4118 negativo não, 0.0004
-0.4118 negócio novo -0.0566
-0.4118 negócios registrar 0.2274
-0.3010 no estoque 0.0262
-1.5579 no fim? 0.1140
-1.5579 no geral? 0.1140
-1.5579 no modo -0.0742
-0.7507 no sistema -0.0582
-1.5579 no sábado 0.1140
-0.4118 noite e -0.0699
-0.4118 noite, assistente -0.0639
-0.4118 nome? você -0.0875
-0.4118 nos meus 0.0949
-0.4118 nosso best-seller? 0.1140
-0.7128 noturno alterar 0.0373
-0.7128 noturno modo -0.0304
-0.4118 noturno? mude 0.2117
-1.9681 nova ajuda 0.8042
-0.5563 nova categoria 0.0929
-1.1609 nova classificação 0.1140
-1.5470 nova compra -0.0654
-1.9681 nova encomenda -0.0054
-1.9681 nova entrada -0.0875
-1.5470 nova família 0.4823
-1.1557 nova ordem 0.5290
-1.9681 nova registrar -0.0957
-1.5470 nova seção 0.2785
-1.9681 nova solicitação 0.6669
-1.5470 nova transação 0.1766
-1.1557 nova venda 0.0661
-1.9681 nova venda, 0.1140
-1.9681 nova venda? -0.0388
-0.4118 nova? adicionar 0.2351
-1.9774 novo acesso 0.0510
-1.9774 novo adicionar 0.2396
-2.3985 novo agrupamento -0.0054
-2.3985 novo ajuda 0.8042
-2.3985 novo ao -0.0749
-1.9774 novo artigo 0.1306
-2.3985 novo bem -0.0388
-1.0325 novo cliente -0.0898
-1.9774 novo colaborador -0.0479
-2.3985 novo como -0.0598
-1.5913 novo comprador 0.0160
-2.3985 novo comprador? 0.1140
-1.0325 novo fornecedor -0.1737
-2.3985 novo fornecedor, 0.1140
-1.9774 novo fornecedor? -0.0258
-2.3985 novo funcionário -0.0639
-2.3985 novo grupo -0.0054
-1.5861 novo habito -0.0526
-2.3985 novo hábito -0.0466
-2.3985 novo hábito? 0.1140
-2.3985 novo incluir 0.2813
-1.3944 novo item -0.0478
-2.3985 novo lembrete -0.0054
-2.3985 novo login -0.0546
-1.9774 novo lote -0.0081
-1.9774 novo me -0.1361
-2.3985 novo membro -0.0054
-2.3985 novo membro? 0.1140
-1.3379 novo parceiro 0.1671
-1.9774 novo pedido 0.0096
-1.9774 novo perfil 0.1841
-0.9076 novo produto -0.0194
-2.3985 novo produto, 0.1140
-1.9774 novo produto? 0.0289
-2.3985 novo qual 0.4038
-2.3985 novo quero -0.0914
-2.3985 novo registo -0.0054
-2.3985 novo registro 0.0916
-2.3985 novo tipo 0.2117
-1.5861 novo usuário -0.0561
-1.5913 novo utilizador -0.1153
-0.2066 novo? quero -0.1979
-1.0138 novo? vamos 0.0246
-0.4118 novos produtos -0.0909
-0.4118 num lote -0.0428
-0.4118 numa nova 0.0424
-1.3660 não continue 0.1140
-1.3660 não fazer -0.0908
-1.3660 não faça 0.1140
-1.3660 não não -0.0798
-1.3660 não não, 0.0004
-0.9449 não precisa 0.1140
-1.3660 não quero -0.0977
-1.3660 não é -0.0639
-1.1107 não, deixa -0.0546
-0.6896 não, obrigado 0.1140
-1.1107 não, por 0.2691
-1.1107 não, valeu 0.1140
-0.7128 nível crítico 0.1140
-0.7128 nível de -0.0773
-0.2014 número de -0.3330
-0.4118 números de -0.0642
-2.8334 o João 0.1140
-2.8334 o anterior 0.1140
-2.8334 o brasil? 0.1140
-2.0262 o cadastro 0.0928
-2.8334 o caixa 0.1140
-2.4123 o caminho 0.0271
-2.4123 o campeão 0.0271
-0.9744 o cliente -0.0210
-2.8334 o cliente? 0.0415
-2.8334 o contato 0.2048
-1.4674 o crédito 0.1634
-2.8334 o dashboard 0.1140
-2.4123 o desempenho 0.4261
-2.4123 o endereço 0.1140
-2.0262 o estado 0.0626
-0.9592 o estoque -0.1893
-2.4123 o estoque? 0.0200
-2.8334 o extrato 0.2117
-2.8334 o faturamento? 0.1140
-2.4123 o financeiro 0.0820
-2.4123 o fornecedor -0.0805
-2.0262 o historico 0.1645
-1.0237 o histórico -0.0216
-2.4123 o hábito -0.2312
-1.5185 o inventário 0.1214
-1.8292 o item -0.1774
-2.8334 o jogo 0.1140
-2.8334 o layout 0.1140
-1.7727 o log 0.5741
-2.8334 o melhor -0.0388
-2.4123 o modo 0.0510
-2.8334 o mês -0.0388
-2.8334 o módulo 0.1140
-2.8334 o nosso 0.1140
-2.8334 o nível -0.0054
-2.0210 o número 0.0564
-1.7727 o painel 0.1103
-2.4123 o passo -0.1554
-2.4123 o perfil 0.1841
-1.4674 o preço 0.3980
-2.4123 o procedimento 0.0271
-2.0262 o processo 0.0626
-1.1912 o produto -0.1746
-1.3802 o que -0.1524
-2.0210 o ranking 0.0753
-2.4123 o recebimento 0.4823
-2.8334 o registro -0.0742
-2.0262 o relatório -0.0269
-2.0262 o resumo -0.3182
-1.7727 o saldo 0.1568
-2.8334 o sentido 0.1140
-2.0262 o seu 0.1141
-2.4123 o sistema -0.0722
-2.8334 o sistema? -0.0546
-1.8292 o status 0.0626
-2.0262 o stock 0.0945
-2.8334 o telefone 0.2117
-1.4216 o tema 0.1128
-2.8334 o ticket 0.1140
-2.0210 o top 0.1844
-2.8334 o total 0.2117
-2.4123 o valor 0.1383
-2.4123 o vendedor -0.0479
-2.8334 o visual -0.0388
-0.7128 obrigado não -0.0798
-0.7128 obrigado para, 0.1140
-0.4118 oi bom -0.0546
-1.0138 oi, assistente -0.0639
-1.0138 oi, pode 0.1300
-1.0138 oi, preciso 0.0703
-1.0138 oi, tudo -0.0742
-0.4118 ok s 0.1140
-0.4118 ok, pode -0.0969
-0.4118 ola oi 0.1140
-0.7128 olá assistente -0.0639
-0.7128 olá tudo -0.0304
-1.0138 olá, bom -0.0546
-1.0138 olá, como -0.0959
-1.0138 olá, tudo -0.0304
-1.0138 olá, você -0.0875
-0.7128 onde adicionar 0.2351
-0.7128 onde criar 0.2021
-1.0138 ontem como -0.0959
-1.0138 ontem compare 0.6669
-1.0138 ontem qual 0.0386
-1.0138 ontem quero -0.0977
-0.4118 ontem? me -0.0976
-0.4118 operação não, -0.0639
-0.0580 ordem de -0.2951
-0.4118 ordem? como -0.0959
-0.2917 organizar meus -0.0852
-2.3308 os alertas 0.1140
-1.5237 os clientes -0.0678
-0.9191 os dados 0.2872
-1.0160 os detalhes -0.1408
-1.9097 os hábitos -0.0699
-1.5237 os insights 0.1601
-1.2702 os itens -0.0696
-0.4719 os lotes -0.0139
-1.5237 os melhores -0.1051
-1.5237 os meus -0.0253
-2.3308 os números 0.1140
-2.3308 os pontos 0.1140
-1.9097 os principais 0.4823
-0.8777 os produtos -0.3315
-1.9097 os top 0.1179
-0.4118 padrões? me -0.0465
-0.2527 painel de -0.0696
-1.2569 painel para -0.0976
-0.7128 panorama de -0.0642
-0.7128 panorama financeiro? 0.1140
-2.5356 para 50 -0.0388
-1.5315 para a -0.1337
-2.5356 para abrir -0.0846
-0.9777 para adicionar 0.2238
-2.5356 para agrupar 0.0820
-2.5356 para ajustar 0.1819
-2.1145 para alterar -0.2127
-2.5356 para atualizar -0.0833
-2.5356 para cadastrar 0.3448
-2.1145 para claro -0.0013
-2.5356 para clientes -0.0924
-2.5356 para colaborador -0.0742
-2.5356 para com -0.0930
-2.1145 para como -0.2721
-2.5356 para contas 0.1140
-2.5356 para corrigir 0.0627
-0.9197 para criar 0.2457
-2.5356 para dar 0.0542
-2.5356 para deixa 0.0292
-2.5356 para detalhes -0.0833
-2.5356 para editar 0.0269
-2.5356 para escuro -0.0304
-2.1145 para fornecedor -0.0805
-2.1145 para gerar 0.1179
-2.5356 para inserir 0.1978
-2.5356 para itens -0.0912
-2.5356 para joao -0.0639
-2.5356 para lote -0.0963
-2.5356 para mais -0.0938
-1.7232 para mim? 0.1505
-2.5356 para modificar -0.0633
-2.5356 para navegar 0.6669
-0.6325 para o -0.2669
-2.5356 para os -0.0371
-2.1145 para preciso -0.0516
-2.5356 para produto -0.0974
-2.5356 para quais -0.0564
-2.1145 para quero 0.0291
-2.5356 para reativar 0.1140
-1.7232 para registrar 0.2098
-2.5356 para relatorios 0.1140
-2.1145 para tem 0.0467
-1.4750 para um -0.0259
-2.5356 para uma -0.0923
-2.1145 para vencer -0.0639
-2.5356 para vencer? -0.0388
-2.5356 para venda -0.0649
-2.5356 para vender -0.0882
-2.1145 para ver 0.2096
-2.5356 para verificar -0.0639
-0.4118 para, por 0.2691
-0.4118 parar esquece -0.0054
-1.2569 parceiro ajuda 0.8042
-1.2569 parceiro cadastrar 0.3448
-0.8358 parceiro comercial 0.0271
-0.8358 parceiro de -0.0980
-1.2569 parceiro preciso 0.0703
-0.4118 pare não, -0.0639
-0.4118 passada? comparar -0.0699
-0.4118 passado vendas -0.0020
-0.5927 passo a -0.2789
-0.5927 passo para 0.0121
-0.2066 pdf como -0.0597
-1.0138 pdf quero -0.0679
-0.4118 pdf? preciso 0.0703
-1.5257 pedido ao -0.0899
-0.5215 pedido de -0.2608
-1.5257 pedido iniciar 0.0004
-0.7185 pedido para 0.0403
-1.5257 pedido quero -0.0870
-1.5257 pedido venda 0.0217
-0.4118 pedido? preciso -0.0962
-0.7128 pedidos de -0.0910
-0.7128 pedidos do 0.0484
-0.8889 pedir 50 0.0820
-0.4678 pedir mais -0.0799
-0.7128 percentual de -0.0773
-0.7128 percentual quero -0.0958
-0.4118 percentualmente reduzir 0.3229
-0.3827 perfil de -0.0969
-1.1899 perfil do 0.0484
-1.1899 perfil para -0.0976
-1.1899 perfil quero -0.0774
-0.0501 performance de -0.2682
-0.4118 periódico novo -0.0875
-0.4118 personalizado? pode 0.1300
-0.0501 perto de -0.2371
-0.4118 período? pode -0.0311
-0.4118 períodos? comparação 0.4904
-0.7128 pessoa nova -0.0942
-0.7128 pessoa nova? 0.1140
-0.4118 peças temos 0.0820
-0.4118 peço algo -0.0388
-0.4118 pi? como -0.0917
-0.4118 piada? que -0.0928
-0.4118 plenamente está -0.0742
-2.3308 pode ajustar -0.0772
-1.9097 pode alterar -0.2393
-2.3308 pode aumentar -0.0521
-2.3308 pode buscar 0.1140
-2.3308 pode cancelar -0.0054
-2.3308 pode cantar 0.1140
-1.9097 pode colocar -0.0054
-2.3308 pode começar 0.3229
-2.3308 pode comparar 0.1334
-2.3308 pode continuar 0.1140
-1.5185 pode criar 0.1139
-2.3308 pode deixar 0.1140
-2.3308 pode diminuir -0.0388
-1.9097 pode fazer -0.0343
-2.3308 pode ir -0.0773
-2.3308 pode lançar -0.0546
-0.8399 pode listar 0.2149
-2.3308 pode mandar 0.1140
-0.3876 pode me -0.6470
-1.9097 pode mudar 0.5254
-2.3308 pode parar 0.1140
-1.5237 pode procurar 0.3052
-2.3308 pode reduzir 0.3229
-2.3308 pode resumir 0.1140
-2.3308 pode ser -0.0054
-2.3308 pode traduzir 0.1140
-1.9097 pode vender -0.0119
-2.3308 pode ver 0.0592
-2.3308 pode verificar 0.2048
-0.4118 pontos de -0.0985
-0.7128 popular qual 0.4038
-0.7128 popular top -0.0798
-0.4118 popular? pode 0.1300
-0.4118 população da -0.0798
-1.1368 por cento 0.1140
-1.5579 por cento? 0.1140
-0.2430 por favor 0.0775
-1.5579 por mim 0.1140
-1.5579 por valor -0.0546
-1.5579 por vendedor -0.0742
-0.4118 porcentagem preciso 0.0703
-0.4118 positivo afirmativo 0.1140
-0.6896 posso ajustar 0.2243
-1.1107 posso atualizar 0.0123
-1.1107 posso inserir 0.1978
-1.1107 posso te -0.0054
-0.4118 pouca quantidade? 0.1140
-0.4118 poucas unidades -0.0833
-0.7128 pouco estoque -0.0937
-0.7128 pouco stock -0.0639
-0.7128 pra la 0.1140
-0.7128 pra lá 0.1140
-0.7128 precisa mais -0.0938
-0.7128 precisa para -0.0976
-0.2983 precisam de -0.1640
-1.1107 precisam ser -0.0054
-1.3970 preciso acertar 0.5529
-1.3970 preciso adicionar -0.0811
-1.3970 preciso ajustar 0.1792
-1.3970 preciso alterar 0.2167
-2.2042 preciso atualizar -0.0833
-2.2042 preciso aumentar -0.0521
-2.2042 preciso cadastrar 0.3448
-2.2042 preciso comprar -0.0054
-1.7830 preciso corrigir 0.0943
-2.2042 preciso da -0.0798
-2.2042 preciso das -0.0639
-0.4914 preciso de -0.6955
-2.2042 preciso diminuir -0.0388
-1.2000 preciso do -0.2321
-2.2042 preciso editar 0.0269
-1.7830 preciso fazer -0.0027
-2.2042 preciso incluir 0.2813
-2.2042 preciso inserir 0.1978
-1.7830 preciso modificar 0.0390
-1.7830 preciso mudar 0.2808
-2.2042 preciso pedir -0.0388
-2.2042 preciso registrar -0.0081
-1.7830 preciso saber -0.0176
-1.7830 preciso vender -0.0773
-0.4118 previsao do -0.0977
-1.3660 preço como -0.0978
-0.3054 preço de -0.1993
-0.5588 preço do 0.0854
-0.0817 principais clientes -0.0407
-0.4118 principais? melhores 0.2565
-0.4118 problemas beleza 0.1140
-0.2917 procedimento para -0.0418
-0.8889 processo de -0.0945
-0.4678 processo para 0.0121
-0.0817 procurar o -0.1156
-2.4762 produto X 0.2117
-2.4762 produto X? 0.1140
-2.0551 produto adicionar 0.2396
-2.0551 produto ao 0.0338
-2.4762 produto atualizar 0.0139
-2.0551 produto borracha -0.0054
-2.0551 produto cadastrar 0.3639
-2.0551 produto caneta -0.0258
-2.4762 produto caneta? 0.6669
-2.0551 produto com -0.0292
-0.8340 produto como 0.0520
-1.6638 produto criar -0.0564
-2.4762 produto de -0.0985
-2.0551 produto editar -0.0639
-2.0551 produto estoque 0.0874
-2.4762 produto estrela 0.1140
-2.4762 produto existente? -0.0054
-2.4762 produto gostaria 0.1140
-2.4762 produto histórico -0.0474
-2.0551 produto inserir -0.0598
-1.6638 produto lapis 0.0309
-2.4762 produto lapis? 0.1140
-2.4762 produto líder 0.1140
-1.1614 produto mais -0.2065
-2.0551 produto me 0.0533
-2.4762 produto modificar -0.0055
-2.4762 produto mostrar -0.0521
-2.4762 produto movimentações 0.1371
-2.4762 produto mudar 0.4654
-2.0551 produto na 0.0174
-2.0551 produto no -0.1986
-1.6638 produto novo -0.0890
-2.0551 produto novo? 0.4513
-2.4762 produto para -0.0955
-2.4762 produto perto 0.8639
-1.2194 produto pode 0.1131
-1.4156 produto preciso 0.1004
-2.0551 produto quais 0.0460
-1.4721 produto qual 1.0262
-2.4762 produto quantas -0.0546
-1.2194 produto quero -0.0020
-2.0551 produto registrar 0.2342
-2.4762 produto tutorial 0.3316
-1.6690 produto vamos -0.0532
-2.4762 produto vende 0.1140
-2.4762 produto verifique 0.1140
-0.4118 produto, por 0.2691
-1.6905 produto? ajuda 0.8042
-1.2694 produto? como -0.0886
-1.6905 produto? criar -0.0964
-0.6864 produto? me 0.0696
-1.2694 produto? modificar 0.0109
-0.6299 produto? preciso 0.0478
-1.2694 produto? ver -0.0931
-2.1600 produtos X 0.2117
-2.1600 produtos a -0.0876
-2.1600 produtos acabando -0.0546
-2.1600 produtos alterar -0.0924
-1.7388 produtos ao -0.0495
-1.7388 produtos aumentar 0.0907
-0.7482 produtos com -0.0749
-1.3476 produtos como -0.0461
-2.1600 produtos comprar -0.0054
-2.1600 produtos criar -0.0923
-1.3476 produtos em -0.1469
-1.0993 produtos estão 0.0241
-2.1600 produtos ir 0.8042
-1.3528 produtos mais -0.4265
-1.7388 produtos nova -0.0544
-2.1600 produtos numa 0.1140
-2.1600 produtos perto 0.8639
-2.1600 produtos pode 0.1300
-2.1600 produtos preciso 0.0703
-1.3528 produtos qual 0.0421
-1.7388 produtos que -0.0408
-1.3528 produtos quero -0.1789
-2.1600 produtos ranking 0.2565
-2.1600 produtos registrar 0.2274
-2.1600 produtos solicitação 0.6669
-2.1600 produtos tem -0.0889
-2.1600 produtos vão 0.0292
-0.4678 produtos? quero -0.0858
-0.8889 produtos? registrar -0.0081
-0.4118 programar? você -0.0875
-0.4118 propósito? você -0.0192
-0.4118 prossiga sem 0.1140
-0.4118 proxima lotes -0.0893
-0.7128 próxima pode -0.0311
-0.7128 próxima quais -0.0564
-0.4118 próximo quais -0.0071
-0.7128 próximos da -0.0798
-0.7128 próximos do -0.0977
-1.2278 quais as 0.0203
-1.6139 quais clientes -0.0857
-2.0350 quais habitos -0.0639
-2.0350 quais hábitos -0.0846
-1.0309 quais itens -0.2347
-1.0309 quais lotes 0.0409
-1.0309 quais os 0.1324
-0.7202 quais produtos -0.1820
-2.0350 quais sao 0.1140
-0.7202 quais são -0.2729
-0.5663 qual a -0.0204
-2.2569 qual item -0.0950
-0.1639 qual o -0.1047
-2.2569 qual produto -0.0974
-2.2569 qual é 0.0004
-1.0138 quantas peças 0.1140
-0.2066 quantas unidades 0.0555
-0.3522 quantidade de -0.1363
-1.6670 quantidade disponível -0.0054
-0.8546 quantidade do -0.1378
-0.8546 quantidade em -0.2969
-1.6670 quantidade total 0.2117
-0.4118 quantidade? quero -0.0274
-0.4678 quanto de -0.2792
-0.8889 quanto o -0.0972
-0.4118 quantos anos 0.1140
-0.4118 quartas adicione 0.1140
-1.8589 que devo 0.1140
-1.4378 que está -0.0479
-1.4378 que estão -0.0491
-1.8589 que expiram 0.1140
-1.8589 que horas 0.1140
-1.4378 que mais -0.0886
-1.0517 que me -0.2082
-1.0465 que o -0.2878
-1.0517 que precisam -0.1568
-1.8589 que preciso -0.0917
-1.8589 que tem -0.0889
-1.8589 que um -0.0812
-1.4378 que vai 0.1140
-1.8589 que você -0.0875
-1.0517 que vão 0.0977
-1.4118 quem descobriu 0.1140
-1.4118 quem ganhou 0.1140
-1.4118 quem mais -0.0938
-0.3511 quem são 0.4257
-1.4118 quem te -0.0054
-1.4118 quem é 0.0004
-2.5731 quero a -0.0972
-2.1520 quero acertar -0.0512
-2.5731 quero acessar -0.0388
-1.5690 quero adicionar 0.1067
-2.5731 quero agrupar 0.0820
-2.1520 quero ajuda 0.6196
-2.1520 quero ajustar 0.1975
-1.7659 quero alterar 0.0234
-2.5731 quero analisar -0.0546
-2.1520 quero aprender 0.4823
-1.7659 quero atualizar 0.1934
-1.7659 quero aumentar 0.0744
-2.5731 quero cadastrar 0.3448
-2.5731 quero comparar 0.1334
-2.1520 quero corrigir 0.0943
-1.3163 quero criar 0.0432
-1.7659 quero dar -0.0156
-1.7659 quero definir 0.0502
-1.7659 quero editar -0.1469
-2.5731 quero efetuar 0.1140
-2.5731 quero encomendar -0.0054
-2.1520 quero exportar 0.0449
-1.5125 quero fazer 0.0127
-2.5731 quero inativar 0.1140
-1.7659 quero incluir -0.0803
-2.5731 quero ir 0.8042
-2.5731 quero lançar 0.0292
-2.1520 quero modificar 0.1120
-1.7607 quero o -0.1587
-2.5731 quero organizar 0.2117
-2.5731 quero os -0.0431
-2.5731 quero pedir 0.0820
-2.5731 quero pode -0.0969
-1.7659 quero que -0.4202
-2.5731 quero reduzir 0.3229
-1.1614 quero registrar -0.0345
-0.9853 quero saber -0.0516
-2.5731 quero solicitar 0.1140
-1.1614 quero um -0.0744
-1.5690 quero uma -0.1263
-2.5731 quero usar 0.1140
-1.7607 quero vender 0.0145
-0.8189 quero ver -0.0298
-0.4118 quieto não -0.0798
-0.2527 ranking de -0.1490
-1.2569 ranking dos -0.0388
-0.4118 reativar um -0.0713
-0.4118 receber me 0.0486
-0.0817 recebimento de -0.1190
-1.0138 receita de -0.0985
-1.0138 receita do -0.0958
-1.0138 receita e -0.0699
-1.0138 receita me 0.0486
-0.4118 receita? me 0.0486
-0.4118 recomendação para -0.0906
-0.8889 recomendações análise -0.0054
-0.8889 recomendações insight 0.1140
-0.8889 recomendações para 0.0164
-0.4118 recomende um -0.0983
-1.0138 reduzir 5 -0.0546
-0.2066 reduzir o -0.1473
-0.7128 registo de -0.0961
-0.7128 registo para -0.0841
-0.7128 registrados como -0.0875
-0.7128 registrados me 0.0486
-1.0754 registrar a -0.3557
-2.1360 registrar hábito -0.0798
-2.1360 registrar nova 0.0424
-2.1360 registrar novo -0.0876
-1.7149 registrar o -0.0955
-2.1360 registrar pedido 0.0566
-2.1360 registrar produto -0.0950
-2.1360 registrar recebimento 0.6669
-0.2771 registrar um 0.0273
-0.7243 registrar uma 0.1536
-2.1360 registrar usuário -0.0857
-2.1360 registrar venda -0.0938
-0.4497 registro de -0.0922
-1.2569 registro do 0.0280
-0.8358 registro um -0.0837
-1.2569 registro uma -0.0825
-0.0817 relatorio de -0.1778
-0.4118 relatorios me -0.0905
-1.6905 relatório como -0.0372
-0.1996 relatório de -0.3148
-1.6905 relatório em -0.0727
-1.6905 relatório exportar -0.0639
-1.6905 relatório gerar -0.0466
-1.6905 relatório preciso 0.0703
-1.6905 relatório quero -0.0958
-1.6905 relatório relatório -0.0899
-0.4118 relatório? preciso 0.0703
-0.4118 relatórios toda 0.1140
-0.4118 relação a -0.0972
-0.4118 reposição quais -0.0071
-0.4118 requisição preciso 0.0703
-0.4118 resumir as -0.0952
-0.5588 resumo das -0.0691
-1.3660 resumo de -0.0642
-0.5536 resumo financeiro 0.1766
-1.3660 resumo insights 0.0292
-0.4118 rotinas como -0.0917
-0.4118 s certo -0.0054
-1.6422 saber hoje? 0.1140
-0.3274 saber o -0.0067
-0.8298 saber os 0.0751
-1.2211 saber quais 0.0460
-1.6422 saber qual 0.4038
-1.6422 saber quem 0.1572
-0.4118 sai mais? -0.0054
-0.4118 saindo? quero -0.0274
-0.5536 saldo de -0.3215
-1.3660 saldo devedor 0.1140
-0.5588 saldo do 0.3173
-1.3660 saldo em -0.0217
-0.4118 sao os -0.0857
-0.4118 saudações como -0.0859
-0.4118 saída me 0.0486
-0.4118 saída? me 0.0486
-0.4118 saídas de -0.0865
-0.8889 se adiciona 0.1140
-0.8889 se cria 0.1140
-0.8889 se saindo? 0.1140
-0.4118 segunda-feira quero -0.0914
-0.0817 sei quais -0.1079
-0.4118 sem problemas 0.1140
-0.8889 semana e -0.0699
-0.8889 semana em -0.0950
-0.8889 semana passada? 0.1140
-0.4118 sentido da -0.0798
-0.4118 sentimentos? quem -0.0817
-0.7128 ser comprados? 0.1140
-0.7128 ser ok 0.1140
-0.4118 serviços quero -0.0914
-0.7128 seu nome? 0.1140
-0.7128 seu propósito? 0.1140
-0.4118 sexta registrar -0.0904
-0.2983 seção de -0.0699
-1.1107 seção para -0.0976
-0.4118 silva começar 0.3229
-0.4118 sim confirmo 0.1140
-0.4118 sim, por 0.2691
-1.5257 sistema adicionar -0.0934
-1.5257 sistema analise 0.1140
-1.5257 sistema como -0.0598
-1.5257 sistema criar -0.0964
-1.5257 sistema e -0.0699
-1.5257 sistema ir 0.8042
-1.5257 sistema novo -0.0943
-1.5257 sistema o -0.0804
-1.5257 sistema preciso 0.0703
-1.1046 sistema quero 0.0094
-1.5257 sistema recomendações -0.0388
-1.5257 sistema sugere? 0.1140
-1.0138 sistema? criar -0.0298
-1.0138 sistema? me 0.0486
-1.0138 sistema? mude 0.2117
-1.0138 sistema? o -0.0804
-1.1899 sobre a -0.0972
-0.7688 sobre as -0.0339
-1.1899 sobre mim? 0.0004
-0.7688 sobre o -0.2348
-0.4118 solicitar uma -0.0923
-0.0817 solicitação de -0.4447
-0.4118 sonha? quantos 0.1140
-1.1899 status ajuda 0.8042
-0.7688 status de -0.2164
-0.7688 status do 0.0742
-1.1899 status quero -0.0914
-1.1107 stock atual -0.0054
-0.6896 stock de -0.0957
-1.1107 stock quais -0.0564
-1.1107 stock às -0.0054
-0.4118 sua cor -0.0054
-0.4118 sucesso? pode 0.1300
-0.4118 sugere? me -0.0717
-0.4118 sugestão novo -0.0972
-0.8889 sugestões baseadas 0.1140
-0.4678 sugestões do -0.0882
-0.4118 sugira uma -0.0964
-0.4118 sábado quero -0.0870
-1.5579 são as -0.0891
-1.5579 são mais -0.0938
-1.5579 são meus -0.0808
-0.1047 são os 0.2706
-0.4118 são? qual 0.4038
-0.4118 tarde boa -0.0639
-0.7128 tarde, assistente 0.0004
-0.7128 tarde, preciso 0.0703
-0.7128 te ajudar? -0.0054
-0.7128 te criou? 0.1140
-0.4118 teclados para 0.0164
-0.2014 tela de -0.1459
-0.2917 telefone do -0.1362
-0.8298 tem algum 0.0775
-1.2211 tem alguma 0.1140
-1.6422 tem baixo -0.0699
-1.6422 tem crédito? 0.0820
-1.6422 tem do 0.0280
-1.6422 tem mais -0.0938
-0.5816 tem o -0.0290
-1.6422 tem quais -0.0564
-1.6422 tem sentimentos? 0.1140
-0.7128 tem? pode 0.1300
-0.7128 tem? qual 0.0386
-1.6159 tema alterar -0.0924
-1.1948 tema claro -0.0013
-1.6159 tema claro? 0.1140
-1.6159 tema da -0.0798
-1.6159 tema dark 0.1140
-1.6159 tema dark? 0.1140
-1.6159 tema de -0.0985
-0.8087 tema escuro 0.0864
-1.1948 tema light 0.1140
-1.6159 tema modo -0.0304
-1.6159 tema noturno -0.0054
-1.6159 tema para -0.0955
-0.4678 temos de -0.0861
-0.8889 temos do -0.0649
-0.4118 tempo? quem -0.0817
-0.4118 teste faz 0.1140
-0.4118 ticket médio? 0.1140
-0.4118 time de -0.0985
-0.2917 tipo de -0.0957
-0.4118 toda segunda-feira 0.1140
-0.4118 todas as -0.0748
-0.4118 todo o -0.0557
-0.2917 todos os -0.1048
-0.9449 top 3 -0.1554
-1.3660 top 5 -0.0546
-0.5536 top clientes -0.0332
-1.3660 top de -0.0761
-1.3660 top produtos -0.0959
-0.2917 total de 0.0090
-0.7128 trabalho me 0.0486
-0.7128 trabalho tudo -0.0742
-0.4118 traduzir uma -0.0964
-0.8889 transação como -0.0598
-0.4678 transação de -0.2792
-0.4118 transações de -0.0865
-0.8358 tudo bem 0.0309
-1.2569 tudo bem? 0.1140
-0.8358 tudo bom? 0.1140
-1.2569 tudo certo? 0.1140
-1.2569 tudo em -0.0950
-0.2014 tutorial para -0.1725
-0.4118 têm data 0.3316
-2.8527 um acesso -0.0742
-2.4316 um ajuste 0.3058
-2.4316 um arquivo 0.1140
-2.8527 um artigo 0.0916
-2.4316 um aumento 0.0271
-1.3995 um cliente -0.1027
-1.5958 um cliente? 0.1231
-2.0455 um colaborador -0.0200
-2.8527 um comprador -0.0639
-2.4316 um documento 0.1140
-2.8527 um filme 0.1140
-1.4867 um fornecedor 0.0984
-2.0455 um fornecedor? -0.0691
-2.4316 um funcionário -0.0258
-2.8527 um grupo -0.0054
-2.0403 um guia 0.0564
-2.4316 um habito -0.0479
-1.7920 um hábito 0.0473
-2.8527 um insight? 0.1140
-1.3270 um item 0.0146
-1.8485 um item? 0.0909
-2.8527 um lembrete -0.0054
-2.0455 um login -0.0243
-0.9495 um lote 0.0520
-1.2948 um lote? 0.1236
-2.8527 um membro -0.0054
-0.6775 um novo 0.0017
-2.8527 um panorama -0.0054
-2.8527 um parceiro -0.0304
-1.5958 um pedido 0.1590
-2.8527 um pedido? 0.1140
-2.8527 um perfil 0.1334
-0.9638 um produto -0.0087
-1.2105 um produto? -0.0589
-2.8527 um registo -0.0054
-2.4316 um registro -0.0930
-2.8527 um relatorio 0.6669
-1.3617 um relatório -0.0337
-2.8527 um relatório? 0.1140
-2.0455 um resumo -0.0459
-2.8527 um tipo 0.2117
-2.4316 um tutorial 0.1470
-2.0403 um usuário -0.0190
-2.8527 um usuário? 0.1140
-2.4316 um utilizador -0.0013
-2.8527 um vendedor -0.0742
-2.2443 uma ajuda -0.0918
-2.2443 uma análise -0.0054
-2.2443 uma ação 0.1140
-1.2401 uma categoria -0.0288
-2.2443 uma categoria? 0.1140
-2.2443 uma comparação 0.4904
-1.8232 uma compra -0.0654
-2.2443 uma conta -0.0388
-1.4371 uma correção 0.0502
-2.2443 uma encomenda -0.0054
-1.4319 uma entrada 0.1030
-2.2443 uma entrada? 0.1140
-2.2443 uma frase 0.1140
-2.2443 uma inteligência 0.1140
-1.4371 uma lista 0.4492
-2.2443 uma música? 0.2117
-0.5772 uma nova 0.1773
-1.8232 uma ordem 0.6196
-1.8232 uma pessoa 0.1140
-2.2443 uma piada? 0.1140
-2.2443 uma receita -0.0546
-2.2443 uma requisição 0.1140
-2.2443 uma seção 0.2048
-2.2443 uma solicitação 0.6669
-2.2443 uma sugestão 0.1140
-2.2443 uma transação 0.0820
-0.9294 uma venda 0.1311
-1.8232 uma venda? 0.0309
-0.4118 unidade de -0.0985
-1.4532 unidades ainda 0.1140
-1.4532 unidades ao -0.0749
-1.4532 unidades como -0.0959
-1.0320 unidades de -0.0973
-0.6408 unidades do -0.1378
-1.4532 unidades quero -0.0515
-1.4532 unidades tem -0.0889
-0.4118 usar o -0.0821
-0.4118 uso quero -0.0274
-0.7185 usuário adicionar 0.1256
-1.5257 usuário ao -0.0899
-1.1046 usuário cadastrar 0.3639
-1.5257 usuário como -0.0752
-1.5257 usuário compare 0.6669
-1.5257 usuário criar -0.0964
-1.5257 usuário novo -0.0943
-1.5257 usuário pode -0.0855
-1.5257 usuário preciso 0.0703
-1.5257 usuário vamos 0.0246
-0.4118 usuário? criar -0.0923
-0.4118 usuários me 0.0486
-0.8358 utilizador adicionar 0.2396
-1.2569 utilizador admin 0.1140
-0.8358 utilizador novo -0.0759
-1.2569 utilizador pode 0.1300
-1.2569 utilizador registrar 0.2274
-0.4118 utilizador? quero -0.0914
-0.7128 vai expirar -0.0388
-0.7128 vai vencer -0.0817
-0.7128 vai? olá -0.0054
-0.7128 vai? saudações 0.1140
-0.4118 valeu melhor 0.0820
-1.3660 validade ajuda 0.8042
-1.3660 validade chegando? 0.1140
-1.3660 validade curta 0.1140
-1.3660 validade curta? 0.1140
-1.3660 validade de -0.0318
-1.3660 validade proxima 0.1140
-0.9449 validade próxima 0.1140
-1.3660 validade quais -0.0564
-0.4118 valiosos? me -0.0465
-0.2066 valor de -0.0937
-1.0138 valor quais -0.0564
-1.2459 vamos adicionar 0.0505
-1.2459 vamos ajustar -0.0027
-1.6670 vamos alterar -0.0924
-1.6670 vamos atualizar 0.0123
-0.6064 vamos criar 0.1489
-1.6670 vamos dar 0.0542
-1.6670 vamos fazer 0.1819
-1.6670 vamos gerar 0.0435
-1.6670 vamos iniciar 0.0004
-1.6670 vamos pedir 0.0820
-1.6670 vamos registrar 0.2274
-1.6670 vamos vender -0.0882
-1.1899 vejo meus 0.0949
-0.3775 vejo o 0.0174
-1.1899 vejo os 0.0798
-0.4118 vencem em -0.0884
-1.4118 vencer como -0.0917
-1.4118 vencer este 0.3316
-1.4118 vencer pode 0.1300
-1.4118 vencer produtos -0.0959
-1.4118 vencer quais -0.0071
-1.4118 vencer qual 0.4038
-0.9907 vencer quero -0.2361
-1.4118 vencer tem -0.0293
-1.4118 vencer ver -0.0802
-0.8889 vencer? lista 0.5032
-0.8889 vencer? me -0.0465
-0.8889 vencer? ver -0.0802
-0.4118 vencimento próximo 0.1140
-0.4118 vencimento? ver -0.0001
-1.9303 venda 15 0.1140
-1.5092 venda abrir -0.0820
-1.5092 venda agora 0.0309
-1.1231 venda como -0.1478
-0.9261 venda de -0.1477
-1.9303 venda iniciar -0.0639
-1.1231 venda nova -0.1680
-0.6154 venda para -0.7878
-1.9303 venda pode -0.0969
-1.9303 venda preciso -0.0917
-1.1231 venda quero -0.0584
-1.9303 venda vamos -0.0894
-1.9303 venda vender -0.0882
-0.4118 venda, por 0.2691
-0.8889 venda? preciso -0.0917
-0.8889 venda? quero -0.0774
-0.8889 venda? registrar -0.0957
-1.7310 vendas abrir 0.1255
-1.0915 vendas como -0.0746
-2.1521 vendas compare 0.6669
-0.6990 vendas de -0.1905
-2.1521 vendas deste -0.0054
-0.8953 vendas do -0.0843
-1.3397 vendas em -0.1399
-2.1521 vendas entre 0.1140
-2.1521 vendas este 0.3316
-2.1521 vendas lista 0.5032
-1.7310 vendas me -0.2564
-2.1521 vendas mensais 0.1140
-2.1521 vendas navegar 0.6669
-1.7310 vendas no -0.0742
-2.1521 vendas panorama -0.0054
-2.1521 vendas para 0.0164
-1.7310 vendas pode -0.0834
-2.1521 vendas por -0.0867
-1.7310 vendas qual 1.2691
-1.7310 vendas quero -0.2525
-1.7310 vendas vamos -0.0798
-1.7310 vendas vendas 0.0019
-1.7310 vendas ver 0.1027
-1.3660 vendas? como -0.0916
-1.3660 vendas? comparar -0.0699
-1.3660 vendas? me -0.0717
-1.3660 vendas? pode -0.0969
-0.9449 vendas? preciso 0.1127
-0.5588 vendas? quero -0.1401
-0.4118 vende mais? -0.0054
-0.4118 vende? me -0.0465
-1.2569 vendedor Teste -0.0699
-1.2569 vendedor analisar -0.0546
-1.2569 vendedor como -0.0916
-1.2569 vendedor consultar -0.0833
-1.2569 vendedor está -0.0742
-1.2569 vendedor maria? 0.1140
-1.2569 vendedor qual 0.0386
-0.4118 vendedor? quero -0.0977
-0.8035 vender 1 0.1140
-1.6159 vender 10 -0.0699
-1.6159 vender 2 -0.0388
-1.6159 vender 3 -0.0546
-1.6159 vender 30 -0.0054
-1.6159 vender 4 -0.0054
-1.6159 vender 5 -0.0546
-1.6159 vender abrir -0.0602
-1.6159 vender agora -0.0388
-1.6159 vender algo -0.0388
-1.6159 vender para 0.0164
-1.6159 vender quero -0.0853
-1.6159 vender um -0.0489
-0.4118 vendeu? desempenho 0.1996
-1.1107 vendido me -0.0647
-1.1107 vendido pode -0.0311
-1.1107 vendido produto -0.0679
-0.6896 vendido qual 0.2192
-0.8889 vendido? me -0.0465
-0.4678 vendido? qual 0.4115
-0.8889 vendidos quem -0.0817
-0.4678 vendidos quero -0.2361
-0.4118 vendo um -0.0927
-2.1826 ver a -0.0972
-2.1826 ver acessar -0.0388
-1.1785 ver as 0.4109
-2.1826 ver cadastro -0.0304
-2.1826 ver dados 0.1316
-2.1826 ver desempenho 0.1996
-2.1826 ver estoque -0.0937
-2.1826 ver habitos 0.0004
-1.7615 ver histórico 0.4155
-2.1826 ver informações 0.2691
-1.3754 ver lotes 0.1019
-1.3754 ver meus -0.2667
-0.5156 ver o 0.0206
-0.6917 ver os 0.5237
-1.7615 ver produtos 0.0110
-2.1826 ver saldo 0.0435
-2.1826 ver todas 0.1140
-2.1826 ver todo 0.1140
-2.1826 ver todos 0.2117
-2.1826 ver uma -0.0964
-1.1107 verificar a -0.0943
-0.2983 verificar o -0.1092
-0.4118 verifique o -0.0855
-0.4118 vida? você -0.0875
-0.8889 visual claro -0.0742
-0.8889 visual escuro -0.0304
-0.8889 visual para -0.0955
-0.4118 voce conhece? 0.1140
-1.5879 você aprende 0.1140
-1.5879 você aprendeu 0.1140
-1.5879 você aprendeu? 0.1140
-1.5879 você está -0.0742
-1.5879 você está? 0.1140
-1.5879 você funciona? 0.1140
-1.5879 você gosta 0.1140
-0.7755 você pode 0.0543
-1.5879 você sonha? 0.1140
-1.5879 você tem -0.0889
-1.5879 você tem? -0.0054
-1.5879 você é -0.0639
-0.4118 vs ontem -0.0546
-0.4118 vá em -0.0950
-0.5927 vão expirar 0.0309
-0.5927 vão vencer -0.0329
-0.7128 à base 0.2117
-0.7128 à equipa 0.1140
-0.7128 às de -0.0978
-0.7128 às quartas 0.1140
-0.2917 área de -0.0980
-1.1107 é isso -0.0699
-1.1107 é necessário 0.1140
-0.6896 é o -0.0465
-1.1107 é uma -0.0964
-0.4118 últimas compras 0.1385

\3-grams:
-0.6911 -15% quero um 
-0.6911 1 borracha para 
-0.6911 1 item de 
-0.6911 1 monitor para 
-0.6911 1 unidade de 
-0.6911 10 borrachas para 
-0.6911 10 clips? registrar 
-0.9922 10 por cento 
-0.9922 10 por cento? 
-0.6911 10 produtos X 
-0.6911 10 unidades do 
-0.6911 10% no estoque 
-0.6911 10% qual o 
-0.6911 10% quero reduzir 
-0.6911 100 borrachas encomendar 
-0.6911 123 quero dar 
-0.6911 15 unidades de 
-0.6911 15% no estoque 
-0.6911 2 canetas do 
-0.6911 2 mesas para 
-0.6911 2 teclados para 
-0.6911 20 cadernos do 
-0.6911 20 unidades de 
-0.6911 20% o produto 
-0.6911 20% pode diminuir 
-0.6911 25% o estoque 
-0.6911 3 borrachas do 
-0.9922 3 clientes como 
-0.9922 3 clientes qual 
-0.6911 3 unidades do 
-0.6911 30 borrachas do 
-0.6911 30 dias? quais 
-0.6911 30% do estoque 
-0.6911 4 cadeiras registrar 
-0.6911 4 canetas do 
-0.6911 5 clientes? quem 
-0.6911 5 itens para 
-0.6911 5 lapis do 
-0.6911 5 por cento 
-0.6911 5% do estoque 
-0.6911 5% para mais 
-0.6911 5%? ajustar o 
-0.9922 50 canetas azuis 
-0.9922 50 canetas para 
-0.6911 50 corrigir a 
-0.6911 50% no estoque 
-0.6911 A venda agora 
-0.6911 ABC 3 unidades 
-0.6911 ABC quero criar 
-0.6911 ABC vender 1 
-0.6911 Ana alterar o 
-0.6911 Egito como aprender 
-0.6911 Empresa A venda 
-0.6911 Final venda 15 
-0.6911 João quero vender 
-0.6911 K10 venda para 
-0.6911 L1 registrar a 
-0.6911 L123 para o 
-0.6911 Lua? você pode 
-0.6911 MON-24 vender 4 
-0.6911 Maria Silva quero 
-0.6911 Maria Silva? ver 
-0.6911 Maria do lote 
-0.6911 Penta criar pedido 
-0.6911 Silva quero vender 
-0.6911 Silva? ver o 
-0.6911 Terra até a 
-0.6911 Teste Final venda 
-0.6911 Teste me mostre 
-0.6911 Teste nova venda 
-0.6911 Teste pode vender 
-0.6911 Teste tem? pode 
-0.6911 Teste vendeu? desempenho 
-0.9922 X pode lançar 
-0.9922 X pode vender 
-0.6911 X? preciso diminuir 
-0.6911 XPTO abrir venda 
-0.6911 XPTO tem algum 
-0.6911 XPTO vender 1 
-0.6911 XYZ para o 
-0.6911 Y para o 
-0.6911 Y vamos ajustar 
-0.6911 Z quero registrar 
-0.6911 a Lua? você 
-0.6911 a Maria do 
-0.2385 a adicionar um 
-0.6911 a administração quero 
-0.6911 a ajustar o 
-0.6911 a alterar um 
-0.6911 a anterior? comparação 
-0.1846 a cadastrar um 
-0.6911 a capital da 
-0.3193 a chegada de 
-0.6911 a cliente Ana 
-0.3193 a comparação de 
-0.4954 a contagem de 
-1.1683 a contagem do 
-0.6911 a cor do 
-0.6911 a correção do 
-0.6911 a cotação do 
-0.2748 a criar um 
-0.6911 a dar entrada 
-0.3193 a data de 
-0.6911 a diferença de 
-0.9922 a disponibilidade de 
-0.9922 a disponibilidade do 
-0.6911 a distância da 
-0.6911 a entrada de 
-0.6911 a evolução das 
-0.9922 a fazer meu 
-0.9922 a fazer uma 
-0.3193 a forma de 
-0.6911 a gestão de 
-0.6911 a história do 
-0.6911 a inserir um 
-0.6911 a interface escura 
-0.6911 a lista de 
-0.6911 a ontem compare 
-0.6911 a operação não, 
-0.3193 a passo para 
-0.1846 a performance de 
-0.6911 a população da 
-0.6911 a previsao do 
-0.6911 a programar? você 
-0.3854 a quantidade de 
-1.9216 a quantidade disponível 
-0.8669 a quantidade do 
-0.8669 a quantidade em 
-1.9216 a quantidade total 
-0.6911 a receber me 
-0.9922 a receita do 
-0.9922 a receita e 
-0.6911 a semana passada? 
-0.6911 a seção de 
-0.6911 a sua cor 
-0.1846 a tela de 
-0.3193 a um produto? 
-0.6911 a uma pessoa 
-1.1683 a vencer pode 
-1.1683 a vencer quais 
-1.1683 a vencer quero 
-0.2748 a venda de 
-0.6911 a vender abrir 
-0.6911 a área de 
-0.6911 abc para 50 
-0.6911 aborte a operação 
-0.6911 abrir a seção 
-0.6911 abrir me leve 
-1.3901 abrir o cadastro 
-1.3901 abrir o caixa 
-1.3901 abrir o módulo 
-0.7172 abrir o painel 
-0.6911 abrir os alertas 
-0.6911 abrir pedido de 
-0.6911 abrir uma nova 
-0.9922 abrir venda nova 
-0.9922 abrir venda para 
-0.6911 abro o painel 
-0.3193 acabando quais itens 
-0.6911 acabando tem algum 
-0.6911 acabando ver produtos 
-0.6911 acabando? me diga 
-0.4954 acertar a contagem 
-1.1683 acertar a quantidade 
-1.1683 acertar o estoque 
-1.1683 acertar o inventário 
-1.1683 acertar o número 
-0.6911 acessar a gestão 
-0.6911 acessar mostrar painel 
-0.6911 acessar o painel 
-0.6911 acesso a uma 
-0.3193 acesso ao sistema 
-0.9922 acesso como adicionar 
-0.9922 acesso como crio 
-0.6911 acesso para um 
-0.6911 acesso quero registrar 
-0.6911 adiciona um lote 
-0.9922 adicionar ao estoque? 
-0.9922 adicionar ao inventário 
-0.6911 adicionar categoria como 
-0.9922 adicionar cliente cadastrar 
-0.9922 adicionar cliente quero 
-0.6911 adicionar conta de 
-0.6911 adicionar dados do 
-0.9922 adicionar estoque a 
-0.9922 adicionar estoque de 
-0.6911 adicionar família de 
-0.9922 adicionar fornecedor ao 
-0.9922 adicionar fornecedor cadastrar 
-0.6911 adicionar habito vamos 
-0.3193 adicionar item ao 
-0.6911 adicionar itens ao 
-1.5362 adicionar lote como 
-0.8633 adicionar lote me 
-0.5526 adicionar lote qual 
-1.5362 adicionar lote quero 
-0.6911 adicionar lote? me 
-1.2932 adicionar mais estoque 
-1.2932 adicionar mais itens 
-1.2932 adicionar mais produtos 
-1.2932 adicionar mais unidades 
-0.6911 adicionar novo produto 
-0.6911 adicionar o hábito 
-0.6911 adicionar os dados 
-0.6911 adicionar produto ao 
-0.6911 adicionar produtos ao 
-1.3510 adicionar um cliente 
-2.3346 adicionar um colaborador 
-2.3346 adicionar um fornecedor 
-2.3346 adicionar um fornecedor? 
-2.3346 adicionar um habito 
-2.3346 adicionar um hábito 
-1.3510 adicionar um item 
-2.3346 adicionar um login 
-0.8653 adicionar um lote 
-1.2799 adicionar um lote? 
-2.3346 adicionar um membro 
-0.5295 adicionar um novo 
-1.2192 adicionar um produto 
-1.6617 adicionar um registro 
-2.3346 adicionar um tipo 
-1.1683 adicionar uma categoria 
-0.4954 adicionar uma nova 
-0.6911 adicionar unidades ao 
-0.6911 adicionar usuário cadastrar 
-0.6911 adicione um hábito 
-0.6911 adiciono estoque preciso 
-1.5942 adiciono um cliente 
-1.5942 adiciono um fornecedor 
-1.5942 adiciono um lote 
-1.5942 adiciono um lote? 
-0.6106 adiciono um novo 
-1.5942 adiciono um usuário 
-0.6911 adição de um 
-0.6911 admin quanto o 
-0.6911 administração quero ver 
-0.6911 afirmativo concordo isso 
-0.6911 agora 2 teclados 
-0.6911 agora 20 unidades 
-0.6911 agora iniciar o 
-0.6911 agora? quais são 
-0.6911 agrafador preciso vender 
-0.6911 agrupamento de produtos 
-0.6911 agrupamento quero organizar 
-0.6911 agrupar meus itens? 
-0.9922 agrupar produtos criar 
-0.9922 agrupar produtos numa 
-0.6911 ainda temos de 
-0.6911 ajuda a fazer 
-0.6911 ajuda olá, você 
-0.8980 ajuda para adicionar 
-2.0134 ajuda para ajustar 
-2.0134 ajuda para alterar 
-2.0134 ajuda para atualizar 
-0.4771 ajuda para criar 
-2.0134 ajuda para dar 
-2.0134 ajuda para editar 
-2.0134 ajuda para gerar 
-2.0134 ajuda para modificar 
-1.3405 ajuda para registrar 
-0.6911 ajuda sim confirmo 
-1.6454 ajudar a adicionar 
-1.6454 ajudar a ajustar 
-1.6454 ajudar a alterar 
-0.6617 ajudar a cadastrar 
-1.6454 ajudar a criar 
-1.6454 ajudar a dar 
-1.6454 ajudar a fazer 
-0.6911 ajudar? olá assistente 
-0.6911 ajudar? olá, bom 
-1.2932 ajude a adicionar 
-0.6203 ajude a criar 
-1.2932 ajude a inserir 
-0.9922 ajude com a 
-0.9922 ajude com o 
-0.6911 ajustar 5% para 
-1.1683 ajustar a data 
-0.4954 ajustar a quantidade 
-0.3193 ajustar as informações 
-0.6911 ajustar dados do 
-0.6911 ajustar estoque quero 
-0.6911 ajustar meu estoque 
